digraph Tree {
node [shape=box] ;
0 [label="X[0] <= 25.5\ngini = 0.5\nsamples = 4000\nvalue = [2000, 2000]"] ;
1 [label="X[3] <= 1.38\ngini = 0.2944\nsamples = 1065\nvalue = [874, 191]"] ;
0 -> 1 [labeldistance=2.5, labelangle=45, headlabel="True"] ;
2 [label="X[1] <= 49806.3125\ngini = 0.4225\nsamples = 386\nvalue = [269, 117]"] ;
1 -> 2 ;
3 [label="X[1] <= 45765.5078\ngini = 0.4494\nsamples = 44\nvalue = [15, 29]"] ;
2 -> 3 ;
4 [label="X[4] <= 18.0\ngini = 0.4753\nsamples = 36\nvalue = [14, 22]"] ;
3 -> 4 ;
5 [label="X[1] <= 28961.2344\ngini = 0.4885\nsamples = 33\nvalue = [14, 19]"] ;
4 -> 5 ;
6 [label="gini = 0.0\nsamples = 2\nvalue = [0, 2]"] ;
5 -> 6 ;
7 [label="X[1] <= 34997.0078\ngini = 0.4953\nsamples = 31\nvalue = [14, 17]"] ;
5 -> 7 ;
8 [label="gini = 0.0\nsamples = 2\nvalue = [2, 0]"] ;
7 -> 8 ;
9 [label="X[1] <= 35882.0547\ngini = 0.4851\nsamples = 29\nvalue = [12, 17]"] ;
7 -> 9 ;
10 [label="gini = 0.0\nsamples = 2\nvalue = [0, 2]"] ;
9 -> 10 ;
11 [label="X[1] <= 36122.5078\ngini = 0.4938\nsamples = 27\nvalue = [12, 15]"] ;
9 -> 11 ;
12 [label="gini = 0.0\nsamples = 1\nvalue = [1, 0]"] ;
11 -> 12 ;
13 [label="X[5] <= 0.12\ngini = 0.4882\nsamples = 26\nvalue = [11, 15]"] ;
11 -> 13 ;
14 [label="X[1] <= 43447.5898\ngini = 0.48\nsamples = 25\nvalue = [10, 15]"] ;
13 -> 14 ;
15 [label="X[1] <= 41510.8945\ngini = 0.4082\nsamples = 14\nvalue = [4, 10]"] ;
14 -> 15 ;
16 [label="X[1] <= 40851.1172\ngini = 0.4628\nsamples = 11\nvalue = [4, 7]"] ;
15 -> 16 ;
17 [label="X[1] <= 40161.3125\ngini = 0.42\nsamples = 10\nvalue = [3, 7]"] ;
16 -> 17 ;
18 [label="X[4] <= 1.5\ngini = 0.4898\nsamples = 7\nvalue = [3, 4]"] ;
17 -> 18 ;
19 [label="X[1] <= 37165.0508\ngini = 0.48\nsamples = 5\nvalue = [3, 2]"] ;
18 -> 19 ;
20 [label="X[0] <= 23.5\ngini = 0.4444\nsamples = 3\nvalue = [1, 2]"] ;
19 -> 20 ;
21 [label="gini = 0.0\nsamples = 1\nvalue = [0, 1]"] ;
20 -> 21 ;
22 [label="X[1] <= 36560.7305\ngini = 0.5\nsamples = 2\nvalue = [1, 1]"] ;
20 -> 22 ;
23 [label="gini = 0.0\nsamples = 1\nvalue = [0, 1]"] ;
22 -> 23 ;
24 [label="gini = 0.0\nsamples = 1\nvalue = [1, 0]"] ;
22 -> 24 ;
25 [label="gini = 0.0\nsamples = 2\nvalue = [2, 0]"] ;
19 -> 25 ;
26 [label="gini = 0.0\nsamples = 2\nvalue = [0, 2]"] ;
18 -> 26 ;
27 [label="gini = 0.0\nsamples = 3\nvalue = [0, 3]"] ;
17 -> 27 ;
28 [label="gini = 0.0\nsamples = 1\nvalue = [1, 0]"] ;
16 -> 28 ;
29 [label="gini = 0.0\nsamples = 3\nvalue = [0, 3]"] ;
15 -> 29 ;
30 [label="X[1] <= 44229.1484\ngini = 0.4959\nsamples = 11\nvalue = [6, 5]"] ;
14 -> 30 ;
31 [label="gini = 0.0\nsamples = 3\nvalue = [3, 0]"] ;
30 -> 31 ;
32 [label="X[1] <= 44926.1094\ngini = 0.4688\nsamples = 8\nvalue = [3, 5]"] ;
30 -> 32 ;
33 [label="gini = 0.0\nsamples = 3\nvalue = [0, 3]"] ;
32 -> 33 ;
34 [label="X[1] <= 45179.5352\ngini = 0.48\nsamples = 5\nvalue = [3, 2]"] ;
32 -> 34 ;
35 [label="gini = 0.0\nsamples = 2\nvalue = [2, 0]"] ;
34 -> 35 ;
36 [label="X[1] <= 45729.6172\ngini = 0.4444\nsamples = 3\nvalue = [1, 2]"] ;
34 -> 36 ;
37 [label="gini = 0.0\nsamples = 2\nvalue = [0, 2]"] ;
36 -> 37 ;
38 [label="gini = 0.0\nsamples = 1\nvalue = [1, 0]"] ;
36 -> 38 ;
39 [label="gini = 0.0\nsamples = 1\nvalue = [1, 0]"] ;
13 -> 39 ;
40 [label="gini = 0.0\nsamples = 3\nvalue = [0, 3]"] ;
4 -> 40 ;
41 [label="X[4] <= 1.5\ngini = 0.2188\nsamples = 8\nvalue = [1, 7]"] ;
3 -> 41 ;
42 [label="gini = 0.0\nsamples = 7\nvalue = [0, 7]"] ;
41 -> 42 ;
43 [label="gini = 0.0\nsamples = 1\nvalue = [1, 0]"] ;
41 -> 43 ;
44 [label="X[1] <= 167220.2656\ngini = 0.3822\nsamples = 342\nvalue = [254, 88]"] ;
2 -> 44 ;
45 [label="X[8] <= 1.5\ngini = 0.4206\nsamples = 266\nvalue = [186, 80]"] ;
44 -> 45 ;
46 [label="X[0] <= 23.5\ngini = 0.4006\nsamples = 249\nvalue = [180, 69]"] ;
45 -> 46 ;
47 [label="X[1] <= 165341.625\ngini = 0.3536\nsamples = 170\nvalue = [131, 39]"] ;
46 -> 47 ;
48 [label="X[1] <= 132004.75\ngini = 0.3486\nsamples = 169\nvalue = [131, 38]"] ;
47 -> 48 ;
49 [label="X[6] <= 4.5\ngini = 0.3733\nsamples = 149\nvalue = [112, 37]"] ;
48 -> 49 ;
50 [label="X[1] <= 130762.9219\ngini = 0.3682\nsamples = 148\nvalue = [112, 36]"] ;
49 -> 50 ;
51 [label="X[4] <= 1.5\ngini = 0.3628\nsamples = 147\nvalue = [112, 35]"] ;
50 -> 51 ;
52 [label="X[6] <= 1.5\ngini = 0.3407\nsamples = 124\nvalue = [97, 27]"] ;
51 -> 52 ;
53 [label="X[1] <= 53876.2031\ngini = 0.3334\nsamples = 123\nvalue = [97, 26]"] ;
52 -> 53 ;
54 [label="gini = 0.0\nsamples = 5\nvalue = [5, 0]"] ;
53 -> 54 ;
55 [label="X[1] <= 54635.9531\ngini = 0.3436\nsamples = 118\nvalue = [92, 26]"] ;
53 -> 55 ;
56 [label="gini = 0.0\nsamples = 1\nvalue = [0, 1]"] ;
55 -> 56 ;
57 [label="X[1] <= 123390.2578\ngini = 0.336\nsamples = 117\nvalue = [92, 25]"] ;
55 -> 57 ;
58 [label="X[1] <= 122829.3594\ngini = 0.3446\nsamples = 113\nvalue = [88, 25]"] ;
57 -> 58 ;
59 [label="X[1] <= 56635.0664\ngini = 0.3367\nsamples = 112\nvalue = [88, 24]"] ;
58 -> 59 ;
60 [label="X[1] <= 56087.4141\ngini = 0.48\nsamples = 5\nvalue = [3, 2]"] ;
59 -> 60 ;
61 [label="gini = 0.0\nsamples = 3\nvalue = [3, 0]"] ;
60 -> 61 ;
62 [label="gini = 0.0\nsamples = 2\nvalue = [0, 2]"] ;
60 -> 62 ;
63 [label="X[1] <= 116394.5625\ngini = 0.3267\nsamples = 107\nvalue = [85, 22]"] ;
59 -> 63 ;
64 [label="X[1] <= 99983.875\ngini = 0.2847\nsamples = 64\nvalue = [53, 11]"] ;
63 -> 64 ;
65 [label="X[1] <= 98341.5781\ngini = 0.3482\nsamples = 49\nvalue = [38, 11]"] ;
64 -> 65 ;
66 [label="X[7] <= 1.0\ngini = 0.3096\nsamples = 47\nvalue = [38, 9]"] ;
65 -> 66 ;
67 [label="X[1] <= 62353.2891\ngini = 0.4444\nsamples = 12\nvalue = [8, 4]"] ;
66 -> 67 ;
68 [label="gini = 0.0\nsamples = 1\nvalue = [0, 1]"] ;
67 -> 68 ;
69 [label="X[1] <= 81827.6562\ngini = 0.3967\nsamples = 11\nvalue = [8, 3]"] ;
67 -> 69 ;
70 [label="gini = 0.0\nsamples = 5\nvalue = [5, 0]"] ;
69 -> 70 ;
71 [label="X[1] <= 85114.5625\ngini = 0.5\nsamples = 6\nvalue = [3, 3]"] ;
69 -> 71 ;
72 [label="gini = 0.0\nsamples = 2\nvalue = [0, 2]"] ;
71 -> 72 ;
73 [label="X[1] <= 88290.3594\ngini = 0.375\nsamples = 4\nvalue = [3, 1]"] ;
71 -> 73 ;
74 [label="gini = 0.0\nsamples = 2\nvalue = [2, 0]"] ;
73 -> 74 ;
75 [label="X[1] <= 90194.3594\ngini = 0.5\nsamples = 2\nvalue = [1, 1]"] ;
73 -> 75 ;
76 [label="gini = 0.0\nsamples = 1\nvalue = [0, 1]"] ;
75 -> 76 ;
77 [label="gini = 0.0\nsamples = 1\nvalue = [1, 0]"] ;
75 -> 77 ;
78 [label="X[1] <= 77325.4844\ngini = 0.2449\nsamples = 35\nvalue = [30, 5]"] ;
66 -> 78 ;
79 [label="X[1] <= 65819.4297\ngini = 0.3457\nsamples = 18\nvalue = [14, 4]"] ;
78 -> 79 ;
80 [label="gini = 0.0\nsamples = 8\nvalue = [8, 0]"] ;
79 -> 80 ;
81 [label="X[1] <= 68420.2031\ngini = 0.48\nsamples = 10\nvalue = [6, 4]"] ;
79 -> 81 ;
82 [label="gini = 0.0\nsamples = 1\nvalue = [0, 1]"] ;
81 -> 82 ;
83 [label="X[1] <= 76488.1562\ngini = 0.4444\nsamples = 9\nvalue = [6, 3]"] ;
81 -> 83 ;
84 [label="X[1] <= 70228.9219\ngini = 0.2778\nsamples = 6\nvalue = [5, 1]"] ;
83 -> 84 ;
85 [label="X[1] <= 69913.3828\ngini = 0.5\nsamples = 2\nvalue = [1, 1]"] ;
84 -> 85 ;
86 [label="gini = 0.0\nsamples = 1\nvalue = [1, 0]"] ;
85 -> 86 ;
87 [label="gini = 0.0\nsamples = 1\nvalue = [0, 1]"] ;
85 -> 87 ;
88 [label="gini = 0.0\nsamples = 4\nvalue = [4, 0]"] ;
84 -> 88 ;
89 [label="X[1] <= 76733.8047\ngini = 0.4444\nsamples = 3\nvalue = [1, 2]"] ;
83 -> 89 ;
90 [label="gini = 0.0\nsamples = 1\nvalue = [0, 1]"] ;
89 -> 90 ;
91 [label="X[1] <= 77044.4844\ngini = 0.5\nsamples = 2\nvalue = [1, 1]"] ;
89 -> 91 ;
92 [label="gini = 0.0\nsamples = 1\nvalue = [1, 0]"] ;
91 -> 92 ;
93 [label="gini = 0.0\nsamples = 1\nvalue = [0, 1]"] ;
91 -> 93 ;
94 [label="X[1] <= 87476.0938\ngini = 0.1107\nsamples = 17\nvalue = [16, 1]"] ;
78 -> 94 ;
95 [label="gini = 0.0\nsamples = 11\nvalue = [11, 0]"] ;
94 -> 95 ;
96 [label="X[1] <= 90342.6719\ngini = 0.2778\nsamples = 6\nvalue = [5, 1]"] ;
94 -> 96 ;
97 [label="gini = 0.0\nsamples = 1\nvalue = [0, 1]"] ;
96 -> 97 ;
98 [label="gini = 0.0\nsamples = 5\nvalue = [5, 0]"] ;
96 -> 98 ;
99 [label="gini = 0.0\nsamples = 2\nvalue = [0, 2]"] ;
65 -> 99 ;
100 [label="gini = 0.0\nsamples = 15\nvalue = [15, 0]"] ;
64 -> 100 ;
101 [label="X[1] <= 117739.4062\ngini = 0.3807\nsamples = 43\nvalue = [32, 11]"] ;
63 -> 101 ;
102 [label="X[7] <= 1.0\ngini = 0.4224\nsamples = 33\nvalue = [23, 10]"] ;
101 -> 102 ;
103 [label="X[5] <= 0.09\ngini = 0.32\nsamples = 10\nvalue = [8, 2]"] ;
102 -> 103 ;
104 [label="gini = 0.3457\nsamples = 9\nvalue = [7, 2]"] ;
103 -> 104 ;
105 [label="gini = 0.0\nsamples = 1\nvalue = [1, 0]"] ;
103 -> 105 ;
106 [label="gini = 0.4537\nsamples = 23\nvalue = [15, 8]"] ;
102 -> 106 ;
107 [label="X[7] <= 0.5\ngini = 0.18\nsamples = 10\nvalue = [9, 1]"] ;
101 -> 107 ;
108 [label="gini = 0.0\nsamples = 1\nvalue = [0, 1]"] ;
107 -> 108 ;
109 [label="gini = 0.0\nsamples = 9\nvalue = [9, 0]"] ;
107 -> 109 ;
110 [label="gini = 0.0\nsamples = 1\nvalue = [0, 1]"] ;
58 -> 110 ;
111 [label="gini = 0.0\nsamples = 4\nvalue = [4, 0]"] ;
57 -> 111 ;
112 [label="gini = 0.0\nsamples = 1\nvalue = [0, 1]"] ;
52 -> 112 ;
113 [label="X[6] <= 1.5\ngini = 0.4537\nsamples = 23\nvalue = [15, 8]"] ;
51 -> 113 ;
114 [label="X[4] <= 4.5\ngini = 0.4875\nsamples = 19\nvalue = [11, 8]"] ;
113 -> 114 ;
115 [label="X[1] <= 60017.1602\ngini = 0.4959\nsamples = 11\nvalue = [5, 6]"] ;
114 -> 115 ;
116 [label="gini = 0.0\nsamples = 1\nvalue = [1, 0]"] ;
115 -> 116 ;
117 [label="X[1] <= 110282.8203\ngini = 0.48\nsamples = 10\nvalue = [4, 6]"] ;
115 -> 117 ;
118 [label="gini = 0.0\nsamples = 2\nvalue = [0, 2]"] ;
117 -> 118 ;
119 [label="X[1] <= 114811.6172\ngini = 0.5\nsamples = 8\nvalue = [4, 4]"] ;
117 -> 119 ;
120 [label="gini = 0.0\nsamples = 1\nvalue = [1, 0]"] ;
119 -> 120 ;
121 [label="X[7] <= 1.0\ngini = 0.4898\nsamples = 7\nvalue = [3, 4]"] ;
119 -> 121 ;
122 [label="gini = 0.5\nsamples = 2\nvalue = [1, 1]"] ;
121 -> 122 ;
123 [label="gini = 0.48\nsamples = 5\nvalue = [2, 3]"] ;
121 -> 123 ;
124 [label="X[4] <= 10.5\ngini = 0.375\nsamples = 8\nvalue = [6, 2]"] ;
114 -> 124 ;
125 [label="X[5] <= 20.16\ngini = 0.4444\nsamples = 6\nvalue = [4, 2]"] ;
124 -> 125 ;
126 [label="X[1] <= 109776.5547\ngini = 0.48\nsamples = 5\nvalue = [3, 2]"] ;
125 -> 126 ;
127 [label="X[4] <= 7.5\ngini = 0.375\nsamples = 4\nvalue = [3, 1]"] ;
126 -> 127 ;
128 [label="X[7] <= 1.0\ngini = 0.5\nsamples = 2\nvalue = [1, 1]"] ;
127 -> 128 ;
129 [label="gini = 0.0\nsamples = 1\nvalue = [1, 0]"] ;
128 -> 129 ;
130 [label="gini = 0.0\nsamples = 1\nvalue = [0, 1]"] ;
128 -> 130 ;
131 [label="gini = 0.0\nsamples = 2\nvalue = [2, 0]"] ;
127 -> 131 ;
132 [label="gini = 0.0\nsamples = 1\nvalue = [0, 1]"] ;
126 -> 132 ;
133 [label="gini = 0.0\nsamples = 1\nvalue = [1, 0]"] ;
125 -> 133 ;
134 [label="gini = 0.0\nsamples = 2\nvalue = [2, 0]"] ;
124 -> 134 ;
135 [label="gini = 0.0\nsamples = 4\nvalue = [4, 0]"] ;
113 -> 135 ;
136 [label="gini = 0.0\nsamples = 1\nvalue = [0, 1]"] ;
50 -> 136 ;
137 [label="gini = 0.0\nsamples = 1\nvalue = [0, 1]"] ;
49 -> 137 ;
138 [label="X[7] <= 0.5\ngini = 0.095\nsamples = 20\nvalue = [19, 1]"] ;
48 -> 138 ;
139 [label="X[1] <= 154379.4375\ngini = 0.375\nsamples = 4\nvalue = [3, 1]"] ;
138 -> 139 ;
140 [label="X[1] <= 145440.5938\ngini = 0.5\nsamples = 2\nvalue = [1, 1]"] ;
139 -> 140 ;
141 [label="gini = 0.0\nsamples = 1\nvalue = [1, 0]"] ;
140 -> 141 ;
142 [label="gini = 0.0\nsamples = 1\nvalue = [0, 1]"] ;
140 -> 142 ;
143 [label="gini = 0.0\nsamples = 2\nvalue = [2, 0]"] ;
139 -> 143 ;
144 [label="gini = 0.0\nsamples = 16\nvalue = [16, 0]"] ;
138 -> 144 ;
145 [label="gini = 0.0\nsamples = 1\nvalue = [0, 1]"] ;
47 -> 145 ;
146 [label="X[1] <= 136988.75\ngini = 0.4711\nsamples = 79\nvalue = [49, 30]"] ;
46 -> 146 ;
147 [label="X[4] <= 1.5\ngini = 0.4475\nsamples = 71\nvalue = [47, 24]"] ;
146 -> 147 ;
148 [label="X[1] <= 86182.2344\ngini = 0.4102\nsamples = 59\nvalue = [42, 17]"] ;
147 -> 148 ;
149 [label="X[7] <= 1.5\ngini = 0.4764\nsamples = 23\nvalue = [14, 9]"] ;
148 -> 149 ;
150 [label="X[1] <= 84184.4219\ngini = 0.2449\nsamples = 7\nvalue = [6, 1]"] ;
149 -> 150 ;
151 [label="gini = 0.0\nsamples = 6\nvalue = [6, 0]"] ;
150 -> 151 ;
152 [label="gini = 0.0\nsamples = 1\nvalue = [0, 1]"] ;
150 -> 152 ;
153 [label="X[0] <= 24.5\ngini = 0.5\nsamples = 16\nvalue = [8, 8]"] ;
149 -> 153 ;
154 [label="X[1] <= 62338.4844\ngini = 0.3457\nsamples = 9\nvalue = [7, 2]"] ;
153 -> 154 ;
155 [label="X[1] <= 55484.2656\ngini = 0.5\nsamples = 4\nvalue = [2, 2]"] ;
154 -> 155 ;
156 [label="gini = 0.0\nsamples = 2\nvalue = [2, 0]"] ;
155 -> 156 ;
157 [label="gini = 0.0\nsamples = 2\nvalue = [0, 2]"] ;
155 -> 157 ;
158 [label="gini = 0.0\nsamples = 5\nvalue = [5, 0]"] ;
154 -> 158 ;
159 [label="X[1] <= 58476.1797\ngini = 0.2449\nsamples = 7\nvalue = [1, 6]"] ;
153 -> 159 ;
160 [label="X[1] <= 52055.625\ngini = 0.5\nsamples = 2\nvalue = [1, 1]"] ;
159 -> 160 ;
161 [label="gini = 0.0\nsamples = 1\nvalue = [0, 1]"] ;
160 -> 161 ;
162 [label="gini = 0.0\nsamples = 1\nvalue = [1, 0]"] ;
160 -> 162 ;
163 [label="gini = 0.0\nsamples = 5\nvalue = [0, 5]"] ;
159 -> 163 ;
164 [label="X[1] <= 116841.3906\ngini = 0.3457\nsamples = 36\nvalue = [28, 8]"] ;
148 -> 164 ;
165 [label="X[7] <= 0.5\ngini = 0.1244\nsamples = 15\nvalue = [14, 1]"] ;
164 -> 165 ;
166 [label="X[1] <= 94497.6875\ngini = 0.4444\nsamples = 3\nvalue = [2, 1]"] ;
165 -> 166 ;
167 [label="gini = 0.0\nsamples = 1\nvalue = [1, 0]"] ;
166 -> 167 ;
168 [label="X[0] <= 24.5\ngini = 0.5\nsamples = 2\nvalue = [1, 1]"] ;
166 -> 168 ;
169 [label="gini = 0.0\nsamples = 1\nvalue = [0, 1]"] ;
168 -> 169 ;
170 [label="gini = 0.0\nsamples = 1\nvalue = [1, 0]"] ;
168 -> 170 ;
171 [label="gini = 0.0\nsamples = 12\nvalue = [12, 0]"] ;
165 -> 171 ;
172 [label="X[0] <= 24.5\ngini = 0.4444\nsamples = 21\nvalue = [14, 7]"] ;
164 -> 172 ;
173 [label="X[7] <= 1.5\ngini = 0.497\nsamples = 13\nvalue = [7, 6]"] ;
172 -> 173 ;
174 [label="gini = 0.0\nsamples = 2\nvalue = [2, 0]"] ;
173 -> 174 ;
175 [label="X[1] <= 128514.2578\ngini = 0.4959\nsamples = 11\nvalue = [5, 6]"] ;
173 -> 175 ;
176 [label="X[1] <= 120990.0625\ngini = 0.48\nsamples = 10\nvalue = [4, 6]"] ;
175 -> 176 ;
177 [label="gini = 0.4938\nsamples = 9\nvalue = [4, 5]"] ;
176 -> 177 ;
178 [label="gini = 0.0\nsamples = 1\nvalue = [0, 1]"] ;
176 -> 178 ;
179 [label="gini = 0.0\nsamples = 1\nvalue = [1, 0]"] ;
175 -> 179 ;
180 [label="X[1] <= 117746.0078\ngini = 0.2188\nsamples = 8\nvalue = [7, 1]"] ;
172 -> 180 ;
181 [label="X[6] <= 3.0\ngini = 0.375\nsamples = 4\nvalue = [3, 1]"] ;
180 -> 181 ;
182 [label="gini = 0.4444\nsamples = 3\nvalue = [2, 1]"] ;
181 -> 182 ;
183 [label="gini = 0.0\nsamples = 1\nvalue = [1, 0]"] ;
181 -> 183 ;
184 [label="gini = 0.0\nsamples = 4\nvalue = [4, 0]"] ;
180 -> 184 ;
185 [label="X[4] <= 4.5\ngini = 0.4861\nsamples = 12\nvalue = [5, 7]"] ;
147 -> 185 ;
186 [label="X[1] <= 126314.7812\ngini = 0.42\nsamples = 10\nvalue = [3, 7]"] ;
185 -> 186 ;
187 [label="X[1] <= 80175.8281\ngini = 0.3457\nsamples = 9\nvalue = [2, 7]"] ;
186 -> 187 ;
188 [label="gini = 0.0\nsamples = 3\nvalue = [0, 3]"] ;
187 -> 188 ;
189 [label="X[1] <= 85256.4141\ngini = 0.4444\nsamples = 6\nvalue = [2, 4]"] ;
187 -> 189 ;
190 [label="gini = 0.0\nsamples = 1\nvalue = [1, 0]"] ;
189 -> 190 ;
191 [label="X[1] <= 105291.6875\ngini = 0.32\nsamples = 5\nvalue = [1, 4]"] ;
189 -> 191 ;
192 [label="gini = 0.0\nsamples = 2\nvalue = [0, 2]"] ;
191 -> 192 ;
193 [label="X[0] <= 24.5\ngini = 0.4444\nsamples = 3\nvalue = [1, 2]"] ;
191 -> 193 ;
194 [label="gini = 0.0\nsamples = 1\nvalue = [0, 1]"] ;
193 -> 194 ;
195 [label="gini = 0.5\nsamples = 2\nvalue = [1, 1]"] ;
193 -> 195 ;
196 [label="gini = 0.0\nsamples = 1\nvalue = [1, 0]"] ;
186 -> 196 ;
197 [label="gini = 0.0\nsamples = 2\nvalue = [2, 0]"] ;
185 -> 197 ;
198 [label="X[0] <= 24.5\ngini = 0.375\nsamples = 8\nvalue = [2, 6]"] ;
146 -> 198 ;
199 [label="X[1] <= 147013.5469\ngini = 0.5\nsamples = 4\nvalue = [2, 2]"] ;
198 -> 199 ;
200 [label="gini = 0.0\nsamples = 1\nvalue = [0, 1]"] ;
199 -> 200 ;
201 [label="X[1] <= 157335.0938\ngini = 0.4444\nsamples = 3\nvalue = [2, 1]"] ;
199 -> 201 ;
202 [label="gini = 0.0\nsamples = 2\nvalue = [2, 0]"] ;
201 -> 202 ;
203 [label="gini = 0.0\nsamples = 1\nvalue = [0, 1]"] ;
201 -> 203 ;
204 [label="gini = 0.0\nsamples = 4\nvalue = [0, 4]"] ;
198 -> 204 ;
205 [label="X[5] <= 26.805\ngini = 0.4567\nsamples = 17\nvalue = [6, 11]"] ;
45 -> 205 ;
206 [label="X[4] <= 124.5\ngini = 0.3367\nsamples = 14\nvalue = [3, 11]"] ;
205 -> 206 ;
207 [label="X[1] <= 110444.5469\ngini = 0.2604\nsamples = 13\nvalue = [2, 11]"] ;
206 -> 207 ;
208 [label="gini = 0.0\nsamples = 6\nvalue = [0, 6]"] ;
207 -> 208 ;
209 [label="X[6] <= 4.5\ngini = 0.4082\nsamples = 7\nvalue = [2, 5]"] ;
207 -> 209 ;
210 [label="X[4] <= 7.5\ngini = 0.5\nsamples = 4\nvalue = [2, 2]"] ;
209 -> 210 ;
211 [label="X[4] <= 3.0\ngini = 0.4444\nsamples = 3\nvalue = [2, 1]"] ;
210 -> 211 ;
212 [label="gini = 0.5\nsamples = 2\nvalue = [1, 1]"] ;
211 -> 212 ;
213 [label="gini = 0.0\nsamples = 1\nvalue = [1, 0]"] ;
211 -> 213 ;
214 [label="gini = 0.0\nsamples = 1\nvalue = [0, 1]"] ;
210 -> 214 ;
215 [label="gini = 0.0\nsamples = 3\nvalue = [0, 3]"] ;
209 -> 215 ;
216 [label="gini = 0.0\nsamples = 1\nvalue = [1, 0]"] ;
206 -> 216 ;
217 [label="gini = 0.0\nsamples = 3\nvalue = [3, 0]"] ;
205 -> 217 ;
218 [label="X[1] <= 1506366.5\ngini = 0.1884\nsamples = 76\nvalue = [68, 8]"] ;
44 -> 218 ;
219 [label="X[7] <= 1.5\ngini = 0.1692\nsamples = 75\nvalue = [68, 7]"] ;
218 -> 219 ;
220 [label="gini = 0.0\nsamples = 21\nvalue = [21, 0]"] ;
219 -> 220 ;
221 [label="X[1] <= 245628.6094\ngini = 0.2257\nsamples = 54\nvalue = [47, 7]"] ;
219 -> 221 ;
222 [label="X[4] <= 7.5\ngini = 0.1284\nsamples = 29\nvalue = [27, 2]"] ;
221 -> 222 ;
223 [label="X[0] <= 24.5\ngini = 0.0689\nsamples = 28\nvalue = [27, 1]"] ;
222 -> 223 ;
224 [label="gini = 0.0\nsamples = 22\nvalue = [22, 0]"] ;
223 -> 224 ;
225 [label="X[1] <= 181739.0625\ngini = 0.2778\nsamples = 6\nvalue = [5, 1]"] ;
223 -> 225 ;
226 [label="X[1] <= 172879.2812\ngini = 0.5\nsamples = 2\nvalue = [1, 1]"] ;
225 -> 226 ;
227 [label="gini = 0.0\nsamples = 1\nvalue = [1, 0]"] ;
226 -> 227 ;
228 [label="gini = 0.0\nsamples = 1\nvalue = [0, 1]"] ;
226 -> 228 ;
229 [label="gini = 0.0\nsamples = 4\nvalue = [4, 0]"] ;
225 -> 229 ;
230 [label="gini = 0.0\nsamples = 1\nvalue = [0, 1]"] ;
222 -> 230 ;
231 [label="X[1] <= 251293.3438\ngini = 0.32\nsamples = 25\nvalue = [20, 5]"] ;
221 -> 231 ;
232 [label="X[4] <= 1.5\ngini = 0.4444\nsamples = 3\nvalue = [1, 2]"] ;
231 -> 232 ;
233 [label="gini = 0.0\nsamples = 2\nvalue = [0, 2]"] ;
232 -> 233 ;
234 [label="gini = 0.0\nsamples = 1\nvalue = [1, 0]"] ;
232 -> 234 ;
235 [label="X[0] <= 23.5\ngini = 0.2355\nsamples = 22\nvalue = [19, 3]"] ;
231 -> 235 ;
236 [label="X[1] <= 353477.25\ngini = 0.3367\nsamples = 14\nvalue = [11, 3]"] ;
235 -> 236 ;
237 [label="X[1] <= 288724.7812\ngini = 0.5\nsamples = 4\nvalue = [2, 2]"] ;
236 -> 237 ;
238 [label="gini = 0.0\nsamples = 1\nvalue = [1, 0]"] ;
237 -> 238 ;
239 [label="X[1] <= 306386.875\ngini = 0.4444\nsamples = 3\nvalue = [1, 2]"] ;
237 -> 239 ;
240 [label="gini = 0.0\nsamples = 1\nvalue = [0, 1]"] ;
239 -> 240 ;
241 [label="X[1] <= 333812.125\ngini = 0.5\nsamples = 2\nvalue = [1, 1]"] ;
239 -> 241 ;
242 [label="gini = 0.0\nsamples = 1\nvalue = [1, 0]"] ;
241 -> 242 ;
243 [label="gini = 0.0\nsamples = 1\nvalue = [0, 1]"] ;
241 -> 243 ;
244 [label="X[1] <= 621865.0\ngini = 0.18\nsamples = 10\nvalue = [9, 1]"] ;
236 -> 244 ;
245 [label="gini = 0.0\nsamples = 7\nvalue = [7, 0]"] ;
244 -> 245 ;
246 [label="X[1] <= 657925.125\ngini = 0.4444\nsamples = 3\nvalue = [2, 1]"] ;
244 -> 246 ;
247 [label="gini = 0.0\nsamples = 1\nvalue = [0, 1]"] ;
246 -> 247 ;
248 [label="gini = 0.0\nsamples = 2\nvalue = [2, 0]"] ;
246 -> 248 ;
249 [label="gini = 0.0\nsamples = 8\nvalue = [8, 0]"] ;
235 -> 249 ;
250 [label="gini = 0.0\nsamples = 1\nvalue = [0, 1]"] ;
218 -> 250 ;
251 [label="X[8] <= 1.5\ngini = 0.1942\nsamples = 679\nvalue = [605, 74]"] ;
1 -> 251 ;
252 [label="X[0] <= 23.5\ngini = 0.1617\nsamples = 631\nvalue = [575, 56]"] ;
251 -> 252 ;
253 [label="X[4] <= 60.0\ngini = 0.0888\nsamples = 408\nvalue = [389, 19]"] ;
252 -> 253 ;
254 [label="X[1] <= 396104.375\ngini = 0.0804\nsamples = 405\nvalue = [388, 17]"] ;
253 -> 254 ;
255 [label="X[5] <= 2.055\ngini = 0.0761\nsamples = 404\nvalue = [388, 16]"] ;
254 -> 255 ;
256 [label="X[5] <= 1.92\ngini = 0.1287\nsamples = 188\nvalue = [175, 13]"] ;
255 -> 256 ;
257 [label="X[1] <= 30192.3594\ngini = 0.1118\nsamples = 185\nvalue = [174, 11]"] ;
256 -> 257 ;
258 [label="gini = 0.0\nsamples = 1\nvalue = [0, 1]"] ;
257 -> 258 ;
259 [label="X[3] <= 6.465\ngini = 0.1028\nsamples = 184\nvalue = [174, 10]"] ;
257 -> 259 ;
260 [label="X[7] <= 0.5\ngini = 0.0773\nsamples = 149\nvalue = [143, 6]"] ;
259 -> 260 ;
261 [label="X[5] <= 0.915\ngini = 0.255\nsamples = 20\nvalue = [17, 3]"] ;
260 -> 261 ;
262 [label="X[5] <= 0.66\ngini = 0.355\nsamples = 13\nvalue = [10, 3]"] ;
261 -> 262 ;
263 [label="X[1] <= 129346.9219\ngini = 0.18\nsamples = 10\nvalue = [9, 1]"] ;
262 -> 263 ;
264 [label="gini = 0.0\nsamples = 9\nvalue = [9, 0]"] ;
263 -> 264 ;
265 [label="gini = 0.0\nsamples = 1\nvalue = [0, 1]"] ;
263 -> 265 ;
266 [label="X[1] <= 87512.5156\ngini = 0.4444\nsamples = 3\nvalue = [1, 2]"] ;
262 -> 266 ;
267 [label="gini = 0.0\nsamples = 1\nvalue = [0, 1]"] ;
266 -> 267 ;
268 [label="X[5] <= 0.81\ngini = 0.5\nsamples = 2\nvalue = [1, 1]"] ;
266 -> 268 ;
269 [label="gini = 0.0\nsamples = 1\nvalue = [0, 1]"] ;
268 -> 269 ;
270 [label="gini = 0.0\nsamples = 1\nvalue = [1, 0]"] ;
268 -> 270 ;
271 [label="gini = 0.0\nsamples = 7\nvalue = [7, 0]"] ;
261 -> 271 ;
272 [label="X[7] <= 1.5\ngini = 0.0454\nsamples = 129\nvalue = [126, 3]"] ;
260 -> 272 ;
273 [label="X[5] <= 0.33\ngini = 0.0973\nsamples = 39\nvalue = [37, 2]"] ;
272 -> 273 ;
274 [label="gini = 0.0\nsamples = 33\nvalue = [33, 0]"] ;
273 -> 274 ;
275 [label="X[1] <= 147045.3594\ngini = 0.4444\nsamples = 6\nvalue = [4, 2]"] ;
273 -> 275 ;
276 [label="X[5] <= 0.735\ngini = 0.5\nsamples = 4\nvalue = [2, 2]"] ;
275 -> 276 ;
277 [label="X[1] <= 58372.4258\ngini = 0.4444\nsamples = 3\nvalue = [2, 1]"] ;
276 -> 277 ;
278 [label="gini = 0.0\nsamples = 1\nvalue = [1, 0]"] ;
277 -> 278 ;
279 [label="X[1] <= 72313.3203\ngini = 0.5\nsamples = 2\nvalue = [1, 1]"] ;
277 -> 279 ;
280 [label="gini = 0.0\nsamples = 1\nvalue = [0, 1]"] ;
279 -> 280 ;
281 [label="gini = 0.0\nsamples = 1\nvalue = [1, 0]"] ;
279 -> 281 ;
282 [label="gini = 0.0\nsamples = 1\nvalue = [0, 1]"] ;
276 -> 282 ;
283 [label="gini = 0.0\nsamples = 2\nvalue = [2, 0]"] ;
275 -> 283 ;
284 [label="X[1] <= 117869.1875\ngini = 0.022\nsamples = 90\nvalue = [89, 1]"] ;
272 -> 284 ;
285 [label="gini = 0.0\nsamples = 73\nvalue = [73, 0]"] ;
284 -> 285 ;
286 [label="X[1] <= 118648.5156\ngini = 0.1107\nsamples = 17\nvalue = [16, 1]"] ;
284 -> 286 ;
287 [label="gini = 0.0\nsamples = 1\nvalue = [0, 1]"] ;
286 -> 287 ;
288 [label="gini = 0.0\nsamples = 16\nvalue = [16, 0]"] ;
286 -> 288 ;
289 [label="X[3] <= 20.31\ngini = 0.2024\nsamples = 35\nvalue = [31, 4]"] ;
259 -> 289 ;
290 [label="X[4] <= 13.5\ngini = 0.5\nsamples = 6\nvalue = [3, 3]"] ;
289 -> 290 ;
291 [label="gini = 0.0\nsamples = 3\nvalue = [0, 3]"] ;
290 -> 291 ;
292 [label="gini = 0.0\nsamples = 3\nvalue = [3, 0]"] ;
290 -> 292 ;
293 [label="X[1] <= 47547.2422\ngini = 0.0666\nsamples = 29\nvalue = [28, 1]"] ;
289 -> 293 ;
294 [label="X[1] <= 40596.0781\ngini = 0.32\nsamples = 5\nvalue = [4, 1]"] ;
293 -> 294 ;
295 [label="gini = 0.0\nsamples = 4\nvalue = [4, 0]"] ;
294 -> 295 ;
296 [label="gini = 0.0\nsamples = 1\nvalue = [0, 1]"] ;
294 -> 296 ;
297 [label="gini = 0.0\nsamples = 24\nvalue = [24, 0]"] ;
293 -> 297 ;
298 [label="X[4] <= 12.0\ngini = 0.4444\nsamples = 3\nvalue = [1, 2]"] ;
256 -> 298 ;
299 [label="X[5] <= 2.01\ngini = 0.5\nsamples = 2\nvalue = [1, 1]"] ;
298 -> 299 ;
300 [label="gini = 0.0\nsamples = 1\nvalue = [1, 0]"] ;
299 -> 300 ;
301 [label="gini = 0.0\nsamples = 1\nvalue = [0, 1]"] ;
299 -> 301 ;
302 [label="gini = 0.0\nsamples = 1\nvalue = [0, 1]"] ;
298 -> 302 ;
303 [label="X[9] <= 658.305\ngini = 0.0274\nsamples = 216\nvalue = [213, 3]"] ;
255 -> 303 ;
304 [label="X[6] <= 4.5\ngini = 0.0185\nsamples = 214\nvalue = [212, 2]"] ;
303 -> 304 ;
305 [label="X[7] <= 0.5\ngini = 0.01\nsamples = 200\nvalue = [199, 1]"] ;
304 -> 305 ;
306 [label="X[4] <= 1.5\ngini = 0.0476\nsamples = 41\nvalue = [40, 1]"] ;
305 -> 306 ;
307 [label="gini = 0.0\nsamples = 38\nvalue = [38, 0]"] ;
306 -> 307 ;
308 [label="X[1] <= 71456.2812\ngini = 0.4444\nsamples = 3\nvalue = [2, 1]"] ;
306 -> 308 ;
309 [label="gini = 0.0\nsamples = 2\nvalue = [2, 0]"] ;
308 -> 309 ;
310 [label="gini = 0.0\nsamples = 1\nvalue = [0, 1]"] ;
308 -> 310 ;
311 [label="gini = 0.0\nsamples = 159\nvalue = [159, 0]"] ;
305 -> 311 ;
312 [label="X[1] <= 66665.1875\ngini = 0.1327\nsamples = 14\nvalue = [13, 1]"] ;
304 -> 312 ;
313 [label="X[1] <= 58580.7461\ngini = 0.4444\nsamples = 3\nvalue = [2, 1]"] ;
312 -> 313 ;
314 [label="gini = 0.0\nsamples = 2\nvalue = [2, 0]"] ;
313 -> 314 ;
315 [label="gini = 0.0\nsamples = 1\nvalue = [0, 1]"] ;
313 -> 315 ;
316 [label="gini = 0.0\nsamples = 11\nvalue = [11, 0]"] ;
312 -> 316 ;
317 [label="X[4] <= 19.5\ngini = 0.5\nsamples = 2\nvalue = [1, 1]"] ;
303 -> 317 ;
318 [label="gini = 0.0\nsamples = 1\nvalue = [1, 0]"] ;
317 -> 318 ;
319 [label="gini = 0.0\nsamples = 1\nvalue = [0, 1]"] ;
317 -> 319 ;
320 [label="gini = 0.0\nsamples = 1\nvalue = [0, 1]"] ;
254 -> 320 ;
321 [label="X[3] <= 302.835\ngini = 0.4444\nsamples = 3\nvalue = [1, 2]"] ;
253 -> 321 ;
322 [label="gini = 0.0\nsamples = 2\nvalue = [0, 2]"] ;
321 -> 322 ;
323 [label="gini = 0.0\nsamples = 1\nvalue = [1, 0]"] ;
321 -> 323 ;
324 [label="X[2] <= 3.345\ngini = 0.2768\nsamples = 223\nvalue = [186, 37]"] ;
252 -> 324 ;
325 [label="X[6] <= 1.5\ngini = 0.3261\nsamples = 156\nvalue = [124, 32]"] ;
324 -> 325 ;
326 [label="X[1] <= 32388.9902\ngini = 0.2943\nsamples = 145\nvalue = [119, 26]"] ;
325 -> 326 ;
327 [label="gini = 0.0\nsamples = 13\nvalue = [13, 0]"] ;
326 -> 327 ;
328 [label="X[1] <= 34004.7148\ngini = 0.3163\nsamples = 132\nvalue = [106, 26]"] ;
326 -> 328 ;
329 [label="gini = 0.0\nsamples = 2\nvalue = [0, 2]"] ;
328 -> 329 ;
330 [label="X[5] <= 2.37\ngini = 0.3011\nsamples = 130\nvalue = [106, 24]"] ;
328 -> 330 ;
331 [label="X[5] <= 2.025\ngini = 0.3392\nsamples = 97\nvalue = [76, 21]"] ;
330 -> 331 ;
332 [label="X[1] <= 46896.0469\ngini = 0.2989\nsamples = 82\nvalue = [67, 15]"] ;
331 -> 332 ;
333 [label="X[1] <= 39121.5625\ngini = 0.48\nsamples = 5\nvalue = [2, 3]"] ;
332 -> 333 ;
334 [label="gini = 0.0\nsamples = 2\nvalue = [2, 0]"] ;
333 -> 334 ;
335 [label="gini = 0.0\nsamples = 3\nvalue = [0, 3]"] ;
333 -> 335 ;
336 [label="X[5] <= 1.665\ngini = 0.2631\nsamples = 77\nvalue = [65, 12]"] ;
332 -> 336 ;
337 [label="X[5] <= 1.215\ngini = 0.3084\nsamples = 63\nvalue = [51, 12]"] ;
336 -> 337 ;
338 [label="X[1] <= 89901.4844\ngini = 0.2293\nsamples = 53\nvalue = [46, 7]"] ;
337 -> 338 ;
339 [label="X[1] <= 79671.1953\ngini = 0.355\nsamples = 26\nvalue = [20, 6]"] ;
338 -> 339 ;
340 [label="X[5] <= 0.6\ngini = 0.2778\nsamples = 24\nvalue = [20, 4]"] ;
339 -> 340 ;
341 [label="X[5] <= 0.3\ngini = 0.426\nsamples = 13\nvalue = [9, 4]"] ;
340 -> 341 ;
342 [label="X[1] <= 68440.0469\ngini = 0.32\nsamples = 10\nvalue = [8, 2]"] ;
341 -> 342 ;
343 [label="gini = 0.0\nsamples = 5\nvalue = [5, 0]"] ;
342 -> 343 ;
344 [label="X[1] <= 69833.3828\ngini = 0.48\nsamples = 5\nvalue = [3, 2]"] ;
342 -> 344 ;
345 [label="X[7] <= 1.5\ngini = 0.4444\nsamples = 3\nvalue = [1, 2]"] ;
344 -> 345 ;
346 [label="gini = 0.0\nsamples = 2\nvalue = [0, 2]"] ;
345 -> 346 ;
347 [label="gini = 0.0\nsamples = 1\nvalue = [1, 0]"] ;
345 -> 347 ;
348 [label="gini = 0.0\nsamples = 2\nvalue = [2, 0]"] ;
344 -> 348 ;
349 [label="X[1] <= 52660.3516\ngini = 0.4444\nsamples = 3\nvalue = [1, 2]"] ;
341 -> 349 ;
350 [label="gini = 0.0\nsamples = 1\nvalue = [1, 0]"] ;
349 -> 350 ;
351 [label="gini = 0.0\nsamples = 2\nvalue = [0, 2]"] ;
349 -> 351 ;
352 [label="gini = 0.0\nsamples = 11\nvalue = [11, 0]"] ;
340 -> 352 ;
353 [label="gini = 0.0\nsamples = 2\nvalue = [0, 2]"] ;
339 -> 353 ;
354 [label="X[7] <= 0.5\ngini = 0.0713\nsamples = 27\nvalue = [26, 1]"] ;
338 -> 354 ;
355 [label="X[1] <= 141127.1875\ngini = 0.32\nsamples = 5\nvalue = [4, 1]"] ;
354 -> 355 ;
356 [label="gini = 0.0\nsamples = 3\nvalue = [3, 0]"] ;
355 -> 356 ;
357 [label="X[1] <= 191909.0312\ngini = 0.5\nsamples = 2\nvalue = [1, 1]"] ;
355 -> 357 ;
358 [label="gini = 0.0\nsamples = 1\nvalue = [0, 1]"] ;
357 -> 358 ;
359 [label="gini = 0.0\nsamples = 1\nvalue = [1, 0]"] ;
357 -> 359 ;
360 [label="gini = 0.0\nsamples = 22\nvalue = [22, 0]"] ;
354 -> 360 ;
361 [label="X[5] <= 1.47\ngini = 0.5\nsamples = 10\nvalue = [5, 5]"] ;
337 -> 361 ;
362 [label="X[5] <= 1.335\ngini = 0.32\nsamples = 5\nvalue = [1, 4]"] ;
361 -> 362 ;
363 [label="X[0] <= 24.5\ngini = 0.5\nsamples = 2\nvalue = [1, 1]"] ;
362 -> 363 ;
364 [label="gini = 0.0\nsamples = 1\nvalue = [0, 1]"] ;
363 -> 364 ;
365 [label="gini = 0.0\nsamples = 1\nvalue = [1, 0]"] ;
363 -> 365 ;
366 [label="gini = 0.0\nsamples = 3\nvalue = [0, 3]"] ;
362 -> 366 ;
367 [label="X[1] <= 106281.4531\ngini = 0.32\nsamples = 5\nvalue = [4, 1]"] ;
361 -> 367 ;
368 [label="X[1] <= 91125.1797\ngini = 0.5\nsamples = 2\nvalue = [1, 1]"] ;
367 -> 368 ;
369 [label="gini = 0.0\nsamples = 1\nvalue = [1, 0]"] ;
368 -> 369 ;
370 [label="gini = 0.0\nsamples = 1\nvalue = [0, 1]"] ;
368 -> 370 ;
371 [label="gini = 0.0\nsamples = 3\nvalue = [3, 0]"] ;
367 -> 371 ;
372 [label="gini = 0.0\nsamples = 14\nvalue = [14, 0]"] ;
336 -> 372 ;
373 [label="X[1] <= 102604.1719\ngini = 0.48\nsamples = 15\nvalue = [9, 6]"] ;
331 -> 373 ;
374 [label="gini = 0.0\nsamples = 8\nvalue = [8, 0]"] ;
373 -> 374 ;
375 [label="X[5] <= 2.28\ngini = 0.2449\nsamples = 7\nvalue = [1, 6]"] ;
373 -> 375 ;
376 [label="gini = 0.0\nsamples = 5\nvalue = [0, 5]"] ;
375 -> 376 ;
377 [label="X[0] <= 24.5\ngini = 0.5\nsamples = 2\nvalue = [1, 1]"] ;
375 -> 377 ;
378 [label="gini = 0.0\nsamples = 1\nvalue = [0, 1]"] ;
377 -> 378 ;
379 [label="gini = 0.0\nsamples = 1\nvalue = [1, 0]"] ;
377 -> 379 ;
380 [label="X[0] <= 24.5\ngini = 0.1653\nsamples = 33\nvalue = [30, 3]"] ;
330 -> 380 ;
381 [label="X[1] <= 78231.2969\ngini = 0.0868\nsamples = 22\nvalue = [21, 1]"] ;
380 -> 381 ;
382 [label="X[1] <= 77087.7188\ngini = 0.2449\nsamples = 7\nvalue = [6, 1]"] ;
381 -> 382 ;
383 [label="gini = 0.0\nsamples = 6\nvalue = [6, 0]"] ;
382 -> 383 ;
384 [label="gini = 0.0\nsamples = 1\nvalue = [0, 1]"] ;
382 -> 384 ;
385 [label="gini = 0.0\nsamples = 15\nvalue = [15, 0]"] ;
381 -> 385 ;
386 [label="X[1] <= 134837.0\ngini = 0.2975\nsamples = 11\nvalue = [9, 2]"] ;
380 -> 386 ;
387 [label="X[1] <= 112165.6875\ngini = 0.18\nsamples = 10\nvalue = [9, 1]"] ;
386 -> 387 ;
388 [label="gini = 0.0\nsamples = 6\nvalue = [6, 0]"] ;
387 -> 388 ;
389 [label="X[5] <= 2.715\ngini = 0.375\nsamples = 4\nvalue = [3, 1]"] ;
387 -> 389 ;
390 [label="X[1] <= 120834.7812\ngini = 0.5\nsamples = 2\nvalue = [1, 1]"] ;
389 -> 390 ;
391 [label="gini = 0.0\nsamples = 1\nvalue = [0, 1]"] ;
390 -> 391 ;
392 [label="gini = 0.0\nsamples = 1\nvalue = [1, 0]"] ;
390 -> 392 ;
393 [label="gini = 0.0\nsamples = 2\nvalue = [2, 0]"] ;
389 -> 393 ;
394 [label="gini = 0.0\nsamples = 1\nvalue = [0, 1]"] ;
386 -> 394 ;
395 [label="X[5] <= 0.24\ngini = 0.4959\nsamples = 11\nvalue = [5, 6]"] ;
325 -> 395 ;
396 [label="gini = 0.0\nsamples = 4\nvalue = [0, 4]"] ;
395 -> 396 ;
397 [label="X[1] <= 87074.9375\ngini = 0.4082\nsamples = 7\nvalue = [5, 2]"] ;
395 -> 397 ;
398 [label="gini = 0.0\nsamples = 4\nvalue = [4, 0]"] ;
397 -> 398 ;
399 [label="X[2] <= 1.83\ngini = 0.4444\nsamples = 3\nvalue = [1, 2]"] ;
397 -> 399 ;
400 [label="gini = 0.0\nsamples = 1\nvalue = [1, 0]"] ;
399 -> 400 ;
401 [label="gini = 0.0\nsamples = 2\nvalue = [0, 2]"] ;
399 -> 401 ;
402 [label="X[6] <= 10.5\ngini = 0.1381\nsamples = 67\nvalue = [62, 5]"] ;
324 -> 402 ;
403 [label="X[5] <= 19.83\ngini = 0.1155\nsamples = 65\nvalue = [61, 4]"] ;
402 -> 403 ;
404 [label="gini = 0.0\nsamples = 40\nvalue = [40, 0]"] ;
403 -> 404 ;
405 [label="X[5] <= 20.67\ngini = 0.2688\nsamples = 25\nvalue = [21, 4]"] ;
403 -> 405 ;
406 [label="gini = 0.0\nsamples = 1\nvalue = [0, 1]"] ;
405 -> 406 ;
407 [label="X[3] <= 40.77\ngini = 0.2188\nsamples = 24\nvalue = [21, 3]"] ;
405 -> 407 ;
408 [label="gini = 0.0\nsamples = 1\nvalue = [0, 1]"] ;
407 -> 408 ;
409 [label="X[1] <= 91624.9219\ngini = 0.1588\nsamples = 23\nvalue = [21, 2]"] ;
407 -> 409 ;
410 [label="X[1] <= 64422.6445\ngini = 0.5\nsamples = 4\nvalue = [2, 2]"] ;
409 -> 410 ;
411 [label="gini = 0.0\nsamples = 2\nvalue = [2, 0]"] ;
410 -> 411 ;
412 [label="gini = 0.0\nsamples = 2\nvalue = [0, 2]"] ;
410 -> 412 ;
413 [label="gini = 0.0\nsamples = 19\nvalue = [19, 0]"] ;
409 -> 413 ;
414 [label="X[9] <= 98.055\ngini = 0.5\nsamples = 2\nvalue = [1, 1]"] ;
402 -> 414 ;
415 [label="gini = 0.0\nsamples = 1\nvalue = [0, 1]"] ;
414 -> 415 ;
416 [label="gini = 0.0\nsamples = 1\nvalue = [1, 0]"] ;
414 -> 416 ;
417 [label="X[5] <= 2.265\ngini = 0.4688\nsamples = 48\nvalue = [30, 18]"] ;
251 -> 417 ;
418 [label="X[5] <= 1.635\ngini = 0.3967\nsamples = 11\nvalue = [3, 8]"] ;
417 -> 418 ;
419 [label="X[9] <= 159.99\ngini = 0.5\nsamples = 6\nvalue = [3, 3]"] ;
418 -> 419 ;
420 [label="X[4] <= 43.5\ngini = 0.375\nsamples = 4\nvalue = [3, 1]"] ;
419 -> 420 ;
421 [label="gini = 0.0\nsamples = 3\nvalue = [3, 0]"] ;
420 -> 421 ;
422 [label="gini = 0.0\nsamples = 1\nvalue = [0, 1]"] ;
420 -> 422 ;
423 [label="gini = 0.0\nsamples = 2\nvalue = [0, 2]"] ;
419 -> 423 ;
424 [label="gini = 0.0\nsamples = 5\nvalue = [0, 5]"] ;
418 -> 424 ;
425 [label="X[3] <= 190.725\ngini = 0.3944\nsamples = 37\nvalue = [27, 10]"] ;
417 -> 425 ;
426 [label="X[2] <= 4.695\ngini = 0.48\nsamples = 25\nvalue = [15, 10]"] ;
425 -> 426 ;
427 [label="gini = 0.0\nsamples = 7\nvalue = [7, 0]"] ;
426 -> 427 ;
428 [label="X[5] <= 3.78\ngini = 0.4938\nsamples = 18\nvalue = [8, 10]"] ;
426 -> 428 ;
429 [label="gini = 0.0\nsamples = 2\nvalue = [2, 0]"] ;
428 -> 429 ;
430 [label="X[3] <= 40.5\ngini = 0.4688\nsamples = 16\nvalue = [6, 10]"] ;
428 -> 430 ;
431 [label="gini = 0.0\nsamples = 4\nvalue = [0, 4]"] ;
430 -> 431 ;
432 [label="X[1] <= 65089.2734\ngini = 0.5\nsamples = 12\nvalue = [6, 6]"] ;
430 -> 432 ;
433 [label="gini = 0.0\nsamples = 3\nvalue = [3, 0]"] ;
432 -> 433 ;
434 [label="X[2] <= 9.945\ngini = 0.4444\nsamples = 9\nvalue = [3, 6]"] ;
432 -> 434 ;
435 [label="gini = 0.0\nsamples = 1\nvalue = [1, 0]"] ;
434 -> 435 ;
436 [label="X[6] <= 4.5\ngini = 0.375\nsamples = 8\nvalue = [2, 6]"] ;
434 -> 436 ;
437 [label="X[4] <= 42.0\ngini = 0.4444\nsamples = 3\nvalue = [2, 1]"] ;
436 -> 437 ;
438 [label="gini = 0.0\nsamples = 2\nvalue = [2, 0]"] ;
437 -> 438 ;
439 [label="gini = 0.0\nsamples = 1\nvalue = [0, 1]"] ;
437 -> 439 ;
440 [label="gini = 0.0\nsamples = 5\nvalue = [0, 5]"] ;
436 -> 440 ;
441 [label="gini = 0.0\nsamples = 12\nvalue = [12, 0]"] ;
425 -> 441 ;
442 [label="X[2] <= 2.955\ngini = 0.4729\nsamples = 2935\nvalue = [1126, 1809]"] ;
0 -> 442 [labeldistance=2.5, labelangle=-45, headlabel="False"] ;
443 [label="X[0] <= 30.5\ngini = 0.3018\nsamples = 1350\nvalue = [250, 1100]"] ;
442 -> 443 ;
444 [label="X[1] <= 63485.25\ngini = 0.4279\nsamples = 258\nvalue = [80, 178]"] ;
443 -> 444 ;
445 [label="X[3] <= 167.7\ngini = 0.2604\nsamples = 78\nvalue = [12, 66]"] ;
444 -> 445 ;
446 [label="X[5] <= 30.555\ngini = 0.2112\nsamples = 75\nvalue = [9, 66]"] ;
445 -> 446 ;
447 [label="X[1] <= 35509.7852\ngini = 0.1928\nsamples = 74\nvalue = [8, 66]"] ;
446 -> 447 ;
448 [label="gini = 0.0\nsamples = 18\nvalue = [0, 18]"] ;
447 -> 448 ;
449 [label="X[1] <= 36872.8828\ngini = 0.2449\nsamples = 56\nvalue = [8, 48]"] ;
447 -> 449 ;
450 [label="gini = 0.0\nsamples = 1\nvalue = [1, 0]"] ;
449 -> 450 ;
451 [label="X[0] <= 27.5\ngini = 0.2221\nsamples = 55\nvalue = [7, 48]"] ;
449 -> 451 ;
452 [label="X[1] <= 52678.0195\ngini = 0.375\nsamples = 20\nvalue = [5, 15]"] ;
451 -> 452 ;
453 [label="X[1] <= 42508.9531\ngini = 0.2604\nsamples = 13\nvalue = [2, 11]"] ;
452 -> 453 ;
454 [label="X[1] <= 39030.4219\ngini = 0.48\nsamples = 5\nvalue = [2, 3]"] ;
453 -> 454 ;
455 [label="gini = 0.0\nsamples = 3\nvalue = [0, 3]"] ;
454 -> 455 ;
456 [label="gini = 0.0\nsamples = 2\nvalue = [2, 0]"] ;
454 -> 456 ;
457 [label="gini = 0.0\nsamples = 8\nvalue = [0, 8]"] ;
453 -> 457 ;
458 [label="X[1] <= 61233.0742\ngini = 0.4898\nsamples = 7\nvalue = [3, 4]"] ;
452 -> 458 ;
459 [label="X[1] <= 56388.5547\ngini = 0.48\nsamples = 5\nvalue = [3, 2]"] ;
458 -> 459 ;
460 [label="X[1] <= 54130.0938\ngini = 0.4444\nsamples = 3\nvalue = [1, 2]"] ;
459 -> 460 ;
461 [label="gini = 0.0\nsamples = 1\nvalue = [1, 0]"] ;
460 -> 461 ;
462 [label="gini = 0.0\nsamples = 2\nvalue = [0, 2]"] ;
460 -> 462 ;
463 [label="gini = 0.0\nsamples = 2\nvalue = [2, 0]"] ;
459 -> 463 ;
464 [label="gini = 0.0\nsamples = 2\nvalue = [0, 2]"] ;
458 -> 464 ;
465 [label="X[0] <= 29.5\ngini = 0.1078\nsamples = 35\nvalue = [2, 33]"] ;
451 -> 465 ;
466 [label="gini = 0.0\nsamples = 22\nvalue = [0, 22]"] ;
465 -> 466 ;
467 [label="X[1] <= 49149.8828\ngini = 0.2604\nsamples = 13\nvalue = [2, 11]"] ;
465 -> 467 ;
468 [label="X[1] <= 46910.9531\ngini = 0.4444\nsamples = 6\nvalue = [2, 4]"] ;
467 -> 468 ;
469 [label="gini = 0.0\nsamples = 4\nvalue = [0, 4]"] ;
468 -> 469 ;
470 [label="gini = 0.0\nsamples = 2\nvalue = [2, 0]"] ;
468 -> 470 ;
471 [label="gini = 0.0\nsamples = 7\nvalue = [0, 7]"] ;
467 -> 471 ;
472 [label="gini = 0.0\nsamples = 1\nvalue = [1, 0]"] ;
446 -> 472 ;
473 [label="gini = 0.0\nsamples = 3\nvalue = [3, 0]"] ;
445 -> 473 ;
474 [label="X[4] <= 7.5\ngini = 0.4701\nsamples = 180\nvalue = [68, 112]"] ;
444 -> 474 ;
475 [label="X[1] <= 176182.0\ngini = 0.4842\nsamples = 163\nvalue = [67, 96]"] ;
474 -> 475 ;
476 [label="X[5] <= 0.18\ngini = 0.4705\nsamples = 140\nvalue = [53, 87]"] ;
475 -> 476 ;
477 [label="X[7] <= 1.5\ngini = 0.461\nsamples = 136\nvalue = [49, 87]"] ;
476 -> 477 ;
478 [label="X[0] <= 27.5\ngini = 0.4996\nsamples = 37\nvalue = [19, 18]"] ;
477 -> 478 ;
479 [label="X[1] <= 93687.6719\ngini = 0.1528\nsamples = 12\nvalue = [11, 1]"] ;
478 -> 479 ;
480 [label="X[1] <= 84090.75\ngini = 0.4444\nsamples = 3\nvalue = [2, 1]"] ;
479 -> 480 ;
481 [label="gini = 0.0\nsamples = 2\nvalue = [2, 0]"] ;
480 -> 481 ;
482 [label="gini = 0.0\nsamples = 1\nvalue = [0, 1]"] ;
480 -> 482 ;
483 [label="gini = 0.0\nsamples = 9\nvalue = [9, 0]"] ;
479 -> 483 ;
484 [label="X[1] <= 112010.6562\ngini = 0.4352\nsamples = 25\nvalue = [8, 17]"] ;
478 -> 484 ;
485 [label="X[7] <= 0.5\ngini = 0.5\nsamples = 12\nvalue = [6, 6]"] ;
484 -> 485 ;
486 [label="X[0] <= 29.5\ngini = 0.4444\nsamples = 9\nvalue = [6, 3]"] ;
485 -> 486 ;
487 [label="X[1] <= 72677.0781\ngini = 0.2778\nsamples = 6\nvalue = [5, 1]"] ;
486 -> 487 ;
488 [label="X[1] <= 69180.5391\ngini = 0.4444\nsamples = 3\nvalue = [2, 1]"] ;
487 -> 488 ;
489 [label="gini = 0.0\nsamples = 2\nvalue = [2, 0]"] ;
488 -> 489 ;
490 [label="gini = 0.0\nsamples = 1\nvalue = [0, 1]"] ;
488 -> 490 ;
491 [label="gini = 0.0\nsamples = 3\nvalue = [3, 0]"] ;
487 -> 491 ;
492 [label="X[1] <= 103543.9219\ngini = 0.4444\nsamples = 3\nvalue = [1, 2]"] ;
486 -> 492 ;
493 [label="gini = 0.0\nsamples = 2\nvalue = [0, 2]"] ;
492 -> 493 ;
494 [label="gini = 0.0\nsamples = 1\nvalue = [1, 0]"] ;
492 -> 494 ;
495 [label="gini = 0.0\nsamples = 3\nvalue = [0, 3]"] ;
485 -> 495 ;
496 [label="X[1] <= 121861.3594\ngini = 0.2604\nsamples = 13\nvalue = [2, 11]"] ;
484 -> 496 ;
497 [label="gini = 0.0\nsamples = 8\nvalue = [0, 8]"] ;
496 -> 497 ;
498 [label="X[0] <= 29.5\ngini = 0.48\nsamples = 5\nvalue = [2, 3]"] ;
496 -> 498 ;
499 [label="gini = 0.0\nsamples = 3\nvalue = [0, 3]"] ;
498 -> 499 ;
500 [label="gini = 0.0\nsamples = 2\nvalue = [2, 0]"] ;
498 -> 500 ;
501 [label="X[7] <= 2.5\ngini = 0.4224\nsamples = 99\nvalue = [30, 69]"] ;
477 -> 501 ;
502 [label="X[8] <= 6.0\ngini = 0.4167\nsamples = 98\nvalue = [29, 69]"] ;
501 -> 502 ;
503 [label="X[1] <= 66119.125\ngini = 0.4107\nsamples = 97\nvalue = [28, 69]"] ;
502 -> 503 ;
504 [label="gini = 0.0\nsamples = 5\nvalue = [0, 5]"] ;
503 -> 504 ;
505 [label="X[1] <= 66685.625\ngini = 0.4234\nsamples = 92\nvalue = [28, 64]"] ;
503 -> 505 ;
506 [label="gini = 0.0\nsamples = 1\nvalue = [1, 0]"] ;
505 -> 506 ;
507 [label="X[1] <= 167560.2188\ngini = 0.4173\nsamples = 91\nvalue = [27, 64]"] ;
505 -> 507 ;
508 [label="X[1] <= 165963.4062\ngini = 0.4254\nsamples = 88\nvalue = [27, 61]"] ;
507 -> 508 ;
509 [label="X[1] <= 153244.3594\ngini = 0.4191\nsamples = 87\nvalue = [26, 61]"] ;
508 -> 509 ;
510 [label="X[1] <= 148542.0781\ngini = 0.4303\nsamples = 83\nvalue = [26, 57]"] ;
509 -> 510 ;
511 [label="X[1] <= 121947.625\ngini = 0.4097\nsamples = 80\nvalue = [23, 57]"] ;
510 -> 511 ;
512 [label="X[1] <= 117727.3047\ngini = 0.431\nsamples = 70\nvalue = [22, 48]"] ;
511 -> 512 ;
513 [label="X[1] <= 69489.75\ngini = 0.4152\nsamples = 68\nvalue = [20, 48]"] ;
512 -> 513 ;
514 [label="X[0] <= 29.0\ngini = 0.2188\nsamples = 8\nvalue = [1, 7]"] ;
513 -> 514 ;
515 [label="gini = 0.0\nsamples = 7\nvalue = [0, 7]"] ;
514 -> 515 ;
516 [label="gini = 0.0\nsamples = 1\nvalue = [1, 0]"] ;
514 -> 516 ;
517 [label="X[1] <= 71589.75\ngini = 0.4328\nsamples = 60\nvalue = [19, 41]"] ;
513 -> 517 ;
518 [label="X[4] <= 4.5\ngini = 0.32\nsamples = 5\nvalue = [4, 1]"] ;
517 -> 518 ;
519 [label="gini = 0.0\nsamples = 3\nvalue = [3, 0]"] ;
518 -> 519 ;
520 [label="X[1] <= 70522.2031\ngini = 0.5\nsamples = 2\nvalue = [1, 1]"] ;
518 -> 520 ;
521 [label="gini = 0.0\nsamples = 1\nvalue = [0, 1]"] ;
520 -> 521 ;
522 [label="gini = 0.0\nsamples = 1\nvalue = [1, 0]"] ;
520 -> 522 ;
523 [label="X[1] <= 77464.2188\ngini = 0.3967\nsamples = 55\nvalue = [15, 40]"] ;
517 -> 523 ;
524 [label="gini = 0.0\nsamples = 6\nvalue = [0, 6]"] ;
523 -> 524 ;
525 [label="X[1] <= 80053.5781\ngini = 0.4248\nsamples = 49\nvalue = [15, 34]"] ;
523 -> 525 ;
526 [label="gini = 0.0\nsamples = 2\nvalue = [2, 0]"] ;
525 -> 526 ;
527 [label="X[1] <= 82866.0\ngini = 0.4002\nsamples = 47\nvalue = [13, 34]"] ;
525 -> 527 ;
528 [label="X[0] <= 27.0\ngini = 0.5\nsamples = 4\nvalue = [2, 2]"] ;
527 -> 528 ;
529 [label="gini = 0.0\nsamples = 2\nvalue = [2, 0]"] ;
528 -> 529 ;
530 [label="gini = 0.0\nsamples = 2\nvalue = [0, 2]"] ;
528 -> 530 ;
531 [label="X[1] <= 91383.3906\ngini = 0.3807\nsamples = 43\nvalue = [11, 32]"] ;
527 -> 531 ;
532 [label="gini = 0.0\nsamples = 6\nvalue = [0, 6]"] ;
531 -> 532 ;
533 [label="X[1] <= 92496.1094\ngini = 0.4178\nsamples = 37\nvalue = [11, 26]"] ;
531 -> 533 ;
534 [label="gini = 0.0\nsamples = 1\nvalue = [1, 0]"] ;
533 -> 534 ;
535 [label="X[1] <= 97737.4531\ngini = 0.4012\nsamples = 36\nvalue = [10, 26]"] ;
533 -> 535 ;
536 [label="gini = 0.0\nsamples = 3\nvalue = [0, 3]"] ;
535 -> 536 ;
537 [label="X[1] <= 98329.5938\ngini = 0.4224\nsamples = 33\nvalue = [10, 23]"] ;
535 -> 537 ;
538 [label="gini = 0.0\nsamples = 1\nvalue = [1, 0]"] ;
537 -> 538 ;
539 [label="X[1] <= 101723.2031\ngini = 0.4043\nsamples = 32\nvalue = [9, 23]"] ;
537 -> 539 ;
540 [label="gini = 0.0\nsamples = 3\nvalue = [0, 3]"] ;
539 -> 540 ;
541 [label="X[1] <= 102783.2734\ngini = 0.4281\nsamples = 29\nvalue = [9, 20]"] ;
539 -> 541 ;
542 [label="gini = 0.0\nsamples = 1\nvalue = [1, 0]"] ;
541 -> 542 ;
543 [label="X[4] <= 3.0\ngini = 0.4082\nsamples = 28\nvalue = [8, 20]"] ;
541 -> 543 ;
544 [label="X[1] <= 104332.2344\ngini = 0.426\nsamples = 26\nvalue = [8, 18]"] ;
543 -> 544 ;
545 [label="gini = 0.0\nsamples = 1\nvalue = [0, 1]"] ;
544 -> 545 ;
546 [label="X[1] <= 105300.5703\ngini = 0.4352\nsamples = 25\nvalue = [8, 17]"] ;
544 -> 546 ;
547 [label="gini = 0.0\nsamples = 1\nvalue = [1, 0]"] ;
546 -> 547 ;
548 [label="X[0] <= 29.5\ngini = 0.4132\nsamples = 24\nvalue = [7, 17]"] ;
546 -> 548 ;
549 [label="X[1] <= 112212.2578\ngini = 0.4567\nsamples = 17\nvalue = [6, 11]"] ;
548 -> 549 ;
550 [label="gini = 0.0\nsamples = 2\nvalue = [0, 2]"] ;
549 -> 550 ;
551 [label="X[1] <= 114850.8594\ngini = 0.48\nsamples = 15\nvalue = [6, 9]"] ;
549 -> 551 ;
552 [label="gini = 0.0\nsamples = 1\nvalue = [1, 0]"] ;
551 -> 552 ;
553 [label="X[0] <= 27.5\ngini = 0.4592\nsamples = 14\nvalue = [5, 9]"] ;
551 -> 553 ;
554 [label="gini = 0.2778\nsamples = 6\nvalue = [1, 5]"] ;
553 -> 554 ;
555 [label="X[0] <= 28.5\ngini = 0.5\nsamples = 8\nvalue = [4, 4]"] ;
553 -> 555 ;
556 [label="gini = 0.5\nsamples = 4\nvalue = [2, 2]"] ;
555 -> 556 ;
557 [label="gini = 0.5\nsamples = 4\nvalue = [2, 2]"] ;
555 -> 557 ;
558 [label="gini = 0.2449\nsamples = 7\nvalue = [1, 6]"] ;
548 -> 558 ;
559 [label="gini = 0.0\nsamples = 2\nvalue = [0, 2]"] ;
543 -> 559 ;
560 [label="gini = 0.0\nsamples = 2\nvalue = [2, 0]"] ;
512 -> 560 ;
561 [label="X[0] <= 29.5\ngini = 0.18\nsamples = 10\nvalue = [1, 9]"] ;
511 -> 561 ;
562 [label="gini = 0.0\nsamples = 8\nvalue = [0, 8]"] ;
561 -> 562 ;
563 [label="X[1] <= 130561.7422\ngini = 0.5\nsamples = 2\nvalue = [1, 1]"] ;
561 -> 563 ;
564 [label="gini = 0.0\nsamples = 1\nvalue = [0, 1]"] ;
563 -> 564 ;
565 [label="gini = 0.0\nsamples = 1\nvalue = [1, 0]"] ;
563 -> 565 ;
566 [label="gini = 0.0\nsamples = 3\nvalue = [3, 0]"] ;
510 -> 566 ;
567 [label="gini = 0.0\nsamples = 4\nvalue = [0, 4]"] ;
509 -> 567 ;
568 [label="gini = 0.0\nsamples = 1\nvalue = [1, 0]"] ;
508 -> 568 ;
569 [label="gini = 0.0\nsamples = 3\nvalue = [0, 3]"] ;
507 -> 569 ;
570 [label="gini = 0.0\nsamples = 1\nvalue = [1, 0]"] ;
502 -> 570 ;
571 [label="gini = 0.0\nsamples = 1\nvalue = [1, 0]"] ;
501 -> 571 ;
572 [label="gini = 0.0\nsamples = 4\nvalue = [4, 0]"] ;
476 -> 572 ;
573 [label="X[1] <= 378488.4375\ngini = 0.4764\nsamples = 23\nvalue = [14, 9]"] ;
475 -> 573 ;
574 [label="X[1] <= 182137.875\ngini = 0.42\nsamples = 20\nvalue = [14, 6]"] ;
573 -> 574 ;
575 [label="gini = 0.0\nsamples = 4\nvalue = [4, 0]"] ;
574 -> 575 ;
576 [label="X[1] <= 200278.1875\ngini = 0.4688\nsamples = 16\nvalue = [10, 6]"] ;
574 -> 576 ;
577 [label="gini = 0.0\nsamples = 3\nvalue = [0, 3]"] ;
576 -> 577 ;
578 [label="X[1] <= 272371.625\ngini = 0.355\nsamples = 13\nvalue = [10, 3]"] ;
576 -> 578 ;
579 [label="X[0] <= 27.5\ngini = 0.42\nsamples = 10\nvalue = [7, 3]"] ;
578 -> 579 ;
580 [label="X[1] <= 223834.25\ngini = 0.4444\nsamples = 3\nvalue = [1, 2]"] ;
579 -> 580 ;
581 [label="gini = 0.0\nsamples = 1\nvalue = [0, 1]"] ;
580 -> 581 ;
582 [label="X[1] <= 238023.7969\ngini = 0.5\nsamples = 2\nvalue = [1, 1]"] ;
580 -> 582 ;
583 [label="gini = 0.0\nsamples = 1\nvalue = [1, 0]"] ;
582 -> 583 ;
584 [label="gini = 0.0\nsamples = 1\nvalue = [0, 1]"] ;
582 -> 584 ;
585 [label="X[1] <= 203274.7188\ngini = 0.2449\nsamples = 7\nvalue = [6, 1]"] ;
579 -> 585 ;
586 [label="X[1] <= 201792.625\ngini = 0.5\nsamples = 2\nvalue = [1, 1]"] ;
585 -> 586 ;
587 [label="gini = 0.0\nsamples = 1\nvalue = [1, 0]"] ;
586 -> 587 ;
588 [label="gini = 0.0\nsamples = 1\nvalue = [0, 1]"] ;
586 -> 588 ;
589 [label="gini = 0.0\nsamples = 5\nvalue = [5, 0]"] ;
585 -> 589 ;
590 [label="gini = 0.0\nsamples = 3\nvalue = [3, 0]"] ;
578 -> 590 ;
591 [label="gini = 0.0\nsamples = 3\nvalue = [0, 3]"] ;
573 -> 591 ;
592 [label="X[3] <= 364.605\ngini = 0.1107\nsamples = 17\nvalue = [1, 16]"] ;
474 -> 592 ;
593 [label="gini = 0.0\nsamples = 16\nvalue = [0, 16]"] ;
592 -> 593 ;
594 [label="gini = 0.0\nsamples = 1\nvalue = [1, 0]"] ;
592 -> 594 ;
595 [label="X[0] <= 66.5\ngini = 0.2629\nsamples = 1092\nvalue = [170, 922]"] ;
443 -> 595 ;
596 [label="X[7] <= 1.5\ngini = 0.2484\nsamples = 1046\nvalue = [152, 894]"] ;
595 -> 596 ;
597 [label="X[5] <= 1.29\ngini = 0.3247\nsamples = 304\nvalue = [62, 242]"] ;
596 -> 597 ;
598 [label="X[1] <= 636109.0\ngini = 0.3127\nsamples = 299\nvalue = [58, 241]"] ;
597 -> 598 ;
599 [label="X[3] <= 56.865\ngini = 0.3068\nsamples = 296\nvalue = [56, 240]"] ;
598 -> 599 ;
600 [label="X[1] <= 33966.4219\ngini = 0.3007\nsamples = 293\nvalue = [54, 239]"] ;
599 -> 600 ;
601 [label="gini = 0.0\nsamples = 12\nvalue = [0, 12]"] ;
600 -> 601 ;
602 [label="X[1] <= 34493.4141\ngini = 0.3105\nsamples = 281\nvalue = [54, 227]"] ;
600 -> 602 ;
603 [label="gini = 0.0\nsamples = 2\nvalue = [2, 0]"] ;
602 -> 603 ;
604 [label="X[0] <= 52.5\ngini = 0.3033\nsamples = 279\nvalue = [52, 227]"] ;
602 -> 604 ;
605 [label="X[0] <= 47.5\ngini = 0.327\nsamples = 238\nvalue = [49, 189]"] ;
604 -> 605 ;
606 [label="X[1] <= 114355.8594\ngini = 0.2914\nsamples = 192\nvalue = [34, 158]"] ;
605 -> 606 ;
607 [label="X[0] <= 40.5\ngini = 0.2252\nsamples = 116\nvalue = [15, 101]"] ;
606 -> 607 ;
608 [label="X[0] <= 39.5\ngini = 0.2832\nsamples = 82\nvalue = [14, 68]"] ;
607 -> 608 ;
609 [label="X[0] <= 31.5\ngini = 0.2364\nsamples = 73\nvalue = [10, 63]"] ;
608 -> 609 ;
610 [label="X[4] <= 1.5\ngini = 0.3967\nsamples = 11\nvalue = [3, 8]"] ;
609 -> 610 ;
611 [label="X[1] <= 44107.1562\ngini = 0.5\nsamples = 6\nvalue = [3, 3]"] ;
610 -> 611 ;
612 [label="gini = 0.0\nsamples = 1\nvalue = [1, 0]"] ;
611 -> 612 ;
613 [label="X[1] <= 46094.3828\ngini = 0.48\nsamples = 5\nvalue = [2, 3]"] ;
611 -> 613 ;
614 [label="gini = 0.0\nsamples = 1\nvalue = [0, 1]"] ;
613 -> 614 ;
615 [label="X[1] <= 64248.7969\ngini = 0.5\nsamples = 4\nvalue = [2, 2]"] ;
613 -> 615 ;
616 [label="gini = 0.0\nsamples = 1\nvalue = [1, 0]"] ;
615 -> 616 ;
617 [label="X[1] <= 84115.0078\ngini = 0.4444\nsamples = 3\nvalue = [1, 2]"] ;
615 -> 617 ;
618 [label="gini = 0.0\nsamples = 1\nvalue = [0, 1]"] ;
617 -> 618 ;
619 [label="X[1] <= 88392.8906\ngini = 0.5\nsamples = 2\nvalue = [1, 1]"] ;
617 -> 619 ;
620 [label="gini = 0.0\nsamples = 1\nvalue = [1, 0]"] ;
619 -> 620 ;
621 [label="gini = 0.0\nsamples = 1\nvalue = [0, 1]"] ;
619 -> 621 ;
622 [label="gini = 0.0\nsamples = 5\nvalue = [0, 5]"] ;
610 -> 622 ;
623 [label="X[4] <= 1.5\ngini = 0.2003\nsamples = 62\nvalue = [7, 55]"] ;
609 -> 623 ;
624 [label="X[0] <= 37.5\ngini = 0.1356\nsamples = 41\nvalue = [3, 38]"] ;
623 -> 624 ;
625 [label="X[0] <= 32.5\ngini = 0.0666\nsamples = 29\nvalue = [1, 28]"] ;
624 -> 625 ;
626 [label="X[1] <= 66413.6406\ngini = 0.18\nsamples = 10\nvalue = [1, 9]"] ;
625 -> 626 ;
627 [label="X[1] <= 53269.4688\ngini = 0.4444\nsamples = 3\nvalue = [1, 2]"] ;
626 -> 627 ;
628 [label="gini = 0.0\nsamples = 2\nvalue = [0, 2]"] ;
627 -> 628 ;
629 [label="gini = 0.0\nsamples = 1\nvalue = [1, 0]"] ;
627 -> 629 ;
630 [label="gini = 0.0\nsamples = 7\nvalue = [0, 7]"] ;
626 -> 630 ;
631 [label="gini = 0.0\nsamples = 19\nvalue = [0, 19]"] ;
625 -> 631 ;
632 [label="X[0] <= 38.5\ngini = 0.2778\nsamples = 12\nvalue = [2, 10]"] ;
624 -> 632 ;
633 [label="X[1] <= 49556.6094\ngini = 0.48\nsamples = 5\nvalue = [2, 3]"] ;
632 -> 633 ;
634 [label="gini = 0.0\nsamples = 1\nvalue = [1, 0]"] ;
633 -> 634 ;
635 [label="X[1] <= 69811.2891\ngini = 0.375\nsamples = 4\nvalue = [1, 3]"] ;
633 -> 635 ;
636 [label="gini = 0.0\nsamples = 3\nvalue = [0, 3]"] ;
635 -> 636 ;
637 [label="gini = 0.0\nsamples = 1\nvalue = [1, 0]"] ;
635 -> 637 ;
638 [label="gini = 0.0\nsamples = 7\nvalue = [0, 7]"] ;
632 -> 638 ;
639 [label="X[1] <= 74362.875\ngini = 0.3084\nsamples = 21\nvalue = [4, 17]"] ;
623 -> 639 ;
640 [label="X[0] <= 37.0\ngini = 0.142\nsamples = 13\nvalue = [1, 12]"] ;
639 -> 640 ;
641 [label="gini = 0.0\nsamples = 9\nvalue = [0, 9]"] ;
640 -> 641 ;
642 [label="X[1] <= 52862.9531\ngini = 0.375\nsamples = 4\nvalue = [1, 3]"] ;
640 -> 642 ;
643 [label="gini = 0.0\nsamples = 1\nvalue = [1, 0]"] ;
642 -> 643 ;
644 [label="gini = 0.0\nsamples = 3\nvalue = [0, 3]"] ;
642 -> 644 ;
645 [label="X[1] <= 86413.2734\ngini = 0.4688\nsamples = 8\nvalue = [3, 5]"] ;
639 -> 645 ;
646 [label="gini = 0.0\nsamples = 2\nvalue = [2, 0]"] ;
645 -> 646 ;
647 [label="X[7] <= 0.5\ngini = 0.2778\nsamples = 6\nvalue = [1, 5]"] ;
645 -> 647 ;
648 [label="gini = 0.0\nsamples = 5\nvalue = [0, 5]"] ;
647 -> 648 ;
649 [label="gini = 0.0\nsamples = 1\nvalue = [1, 0]"] ;
647 -> 649 ;
650 [label="X[1] <= 51381.6602\ngini = 0.4938\nsamples = 9\nvalue = [4, 5]"] ;
608 -> 650 ;
651 [label="gini = 0.0\nsamples = 2\nvalue = [2, 0]"] ;
650 -> 651 ;
652 [label="X[4] <= 7.5\ngini = 0.4082\nsamples = 7\nvalue = [2, 5]"] ;
650 -> 652 ;
653 [label="X[1] <= 79373.9062\ngini = 0.2778\nsamples = 6\nvalue = [1, 5]"] ;
652 -> 653 ;
654 [label="X[1] <= 67132.0078\ngini = 0.4444\nsamples = 3\nvalue = [1, 2]"] ;
653 -> 654 ;
655 [label="gini = 0.0\nsamples = 2\nvalue = [0, 2]"] ;
654 -> 655 ;
656 [label="gini = 0.0\nsamples = 1\nvalue = [1, 0]"] ;
654 -> 656 ;
657 [label="gini = 0.0\nsamples = 3\nvalue = [0, 3]"] ;
653 -> 657 ;
658 [label="gini = 0.0\nsamples = 1\nvalue = [1, 0]"] ;
652 -> 658 ;
659 [label="X[1] <= 105261.8828\ngini = 0.0571\nsamples = 34\nvalue = [1, 33]"] ;
607 -> 659 ;
660 [label="gini = 0.0\nsamples = 31\nvalue = [0, 31]"] ;
659 -> 660 ;
661 [label="X[1] <= 106987.6094\ngini = 0.4444\nsamples = 3\nvalue = [1, 2]"] ;
659 -> 661 ;
662 [label="gini = 0.0\nsamples = 1\nvalue = [1, 0]"] ;
661 -> 662 ;
663 [label="gini = 0.0\nsamples = 2\nvalue = [0, 2]"] ;
661 -> 663 ;
664 [label="X[6] <= 12.0\ngini = 0.375\nsamples = 76\nvalue = [19, 57]"] ;
606 -> 664 ;
665 [label="X[1] <= 115163.1562\ngini = 0.3648\nsamples = 75\nvalue = [18, 57]"] ;
664 -> 665 ;
666 [label="gini = 0.0\nsamples = 1\nvalue = [1, 0]"] ;
665 -> 666 ;
667 [label="X[0] <= 31.5\ngini = 0.3539\nsamples = 74\nvalue = [17, 57]"] ;
665 -> 667 ;
668 [label="gini = 0.0\nsamples = 8\nvalue = [0, 8]"] ;
667 -> 668 ;
669 [label="X[8] <= 1.5\ngini = 0.3825\nsamples = 66\nvalue = [17, 49]"] ;
667 -> 669 ;
670 [label="X[6] <= 4.5\ngini = 0.4061\nsamples = 60\nvalue = [17, 43]"] ;
669 -> 670 ;
671 [label="X[4] <= 9.0\ngini = 0.3953\nsamples = 59\nvalue = [16, 43]"] ;
670 -> 671 ;
672 [label="X[0] <= 45.5\ngini = 0.4082\nsamples = 56\nvalue = [16, 40]"] ;
671 -> 672 ;
673 [label="X[6] <= 1.5\ngini = 0.3848\nsamples = 50\nvalue = [13, 37]"] ;
672 -> 673 ;
674 [label="X[0] <= 41.5\ngini = 0.3698\nsamples = 49\nvalue = [12, 37]"] ;
673 -> 674 ;
675 [label="X[4] <= 1.5\ngini = 0.4114\nsamples = 38\nvalue = [11, 27]"] ;
674 -> 675 ;
676 [label="X[1] <= 118015.6172\ngini = 0.3673\nsamples = 33\nvalue = [8, 25]"] ;
675 -> 676 ;
677 [label="X[0] <= 40.5\ngini = 0.4234\nsamples = 23\nvalue = [7, 16]"] ;
676 -> 677 ;
678 [label="X[0] <= 39.5\ngini = 0.4082\nsamples = 21\nvalue = [6, 15]"] ;
677 -> 678 ;
679 [label="X[0] <= 33.5\ngini = 0.4321\nsamples = 19\nvalue = [6, 13]"] ;
678 -> 679 ;
680 [label="X[0] <= 32.5\ngini = 0.4688\nsamples = 8\nvalue = [3, 5]"] ;
679 -> 680 ;
681 [label="gini = 0.375\nsamples = 4\nvalue = [1, 3]"] ;
680 -> 681 ;
682 [label="gini = 0.5\nsamples = 4\nvalue = [2, 2]"] ;
680 -> 682 ;
683 [label="X[0] <= 35.5\ngini = 0.3967\nsamples = 11\nvalue = [3, 8]"] ;
679 -> 683 ;
684 [label="gini = 0.0\nsamples = 2\nvalue = [0, 2]"] ;
683 -> 684 ;
685 [label="X[0] <= 38.5\ngini = 0.4444\nsamples = 9\nvalue = [3, 6]"] ;
683 -> 685 ;
686 [label="X[0] <= 37.0\ngini = 0.375\nsamples = 4\nvalue = [1, 3]"] ;
685 -> 686 ;
687 [label="gini = 0.4444\nsamples = 3\nvalue = [1, 2]"] ;
686 -> 687 ;
688 [label="gini = 0.0\nsamples = 1\nvalue = [0, 1]"] ;
686 -> 688 ;
689 [label="gini = 0.48\nsamples = 5\nvalue = [2, 3]"] ;
685 -> 689 ;
690 [label="gini = 0.0\nsamples = 2\nvalue = [0, 2]"] ;
678 -> 690 ;
691 [label="gini = 0.5\nsamples = 2\nvalue = [1, 1]"] ;
677 -> 691 ;
692 [label="X[1] <= 246477.5938\ngini = 0.18\nsamples = 10\nvalue = [1, 9]"] ;
676 -> 692 ;
693 [label="gini = 0.0\nsamples = 8\nvalue = [0, 8]"] ;
692 -> 693 ;
694 [label="X[1] <= 354098.0312\ngini = 0.5\nsamples = 2\nvalue = [1, 1]"] ;
692 -> 694 ;
695 [label="gini = 0.0\nsamples = 1\nvalue = [1, 0]"] ;
694 -> 695 ;
696 [label="gini = 0.0\nsamples = 1\nvalue = [0, 1]"] ;
694 -> 696 ;
697 [label="X[1] <= 119362.7031\ngini = 0.48\nsamples = 5\nvalue = [3, 2]"] ;
675 -> 697 ;
698 [label="gini = 0.0\nsamples = 2\nvalue = [0, 2]"] ;
697 -> 698 ;
699 [label="gini = 0.0\nsamples = 3\nvalue = [3, 0]"] ;
697 -> 699 ;
700 [label="X[0] <= 44.5\ngini = 0.1653\nsamples = 11\nvalue = [1, 10]"] ;
674 -> 700 ;
701 [label="gini = 0.0\nsamples = 8\nvalue = [0, 8]"] ;
700 -> 701 ;
702 [label="X[4] <= 3.0\ngini = 0.4444\nsamples = 3\nvalue = [1, 2]"] ;
700 -> 702 ;
703 [label="gini = 0.5\nsamples = 2\nvalue = [1, 1]"] ;
702 -> 703 ;
704 [label="gini = 0.0\nsamples = 1\nvalue = [0, 1]"] ;
702 -> 704 ;
705 [label="gini = 0.0\nsamples = 1\nvalue = [1, 0]"] ;
673 -> 705 ;
706 [label="X[1] <= 127891.25\ngini = 0.5\nsamples = 6\nvalue = [3, 3]"] ;
672 -> 706 ;
707 [label="gini = 0.0\nsamples = 2\nvalue = [2, 0]"] ;
706 -> 707 ;
708 [label="X[1] <= 174202.5\ngini = 0.375\nsamples = 4\nvalue = [1, 3]"] ;
706 -> 708 ;
709 [label="gini = 0.0\nsamples = 3\nvalue = [0, 3]"] ;
708 -> 709 ;
710 [label="gini = 0.0\nsamples = 1\nvalue = [1, 0]"] ;
708 -> 710 ;
711 [label="gini = 0.0\nsamples = 3\nvalue = [0, 3]"] ;
671 -> 711 ;
712 [label="gini = 0.0\nsamples = 1\nvalue = [1, 0]"] ;
670 -> 712 ;
713 [label="gini = 0.0\nsamples = 6\nvalue = [0, 6]"] ;
669 -> 713 ;
714 [label="gini = 0.0\nsamples = 1\nvalue = [1, 0]"] ;
664 -> 714 ;
715 [label="X[4] <= 1.5\ngini = 0.4395\nsamples = 46\nvalue = [15, 31]"] ;
605 -> 715 ;
716 [label="X[1] <= 58075.7109\ngini = 0.4778\nsamples = 38\nvalue = [15, 23]"] ;
715 -> 716 ;
717 [label="gini = 0.0\nsamples = 4\nvalue = [0, 4]"] ;
716 -> 717 ;
718 [label="X[1] <= 103045.9531\ngini = 0.4931\nsamples = 34\nvalue = [15, 19]"] ;
716 -> 718 ;
719 [label="X[1] <= 87533.2969\ngini = 0.4688\nsamples = 16\nvalue = [10, 6]"] ;
718 -> 719 ;
720 [label="X[1] <= 67057.375\ngini = 0.497\nsamples = 13\nvalue = [7, 6]"] ;
719 -> 720 ;
721 [label="X[0] <= 50.5\ngini = 0.4082\nsamples = 7\nvalue = [5, 2]"] ;
720 -> 721 ;
722 [label="gini = 0.0\nsamples = 3\nvalue = [3, 0]"] ;
721 -> 722 ;
723 [label="X[1] <= 59238.7031\ngini = 0.5\nsamples = 4\nvalue = [2, 2]"] ;
721 -> 723 ;
724 [label="gini = 0.0\nsamples = 1\nvalue = [1, 0]"] ;
723 -> 724 ;
725 [label="X[1] <= 64918.125\ngini = 0.4444\nsamples = 3\nvalue = [1, 2]"] ;
723 -> 725 ;
726 [label="gini = 0.0\nsamples = 2\nvalue = [0, 2]"] ;
725 -> 726 ;
727 [label="gini = 0.0\nsamples = 1\nvalue = [1, 0]"] ;
725 -> 727 ;
728 [label="X[0] <= 49.0\ngini = 0.4444\nsamples = 6\nvalue = [2, 4]"] ;
720 -> 728 ;
729 [label="X[1] <= 82432.5625\ngini = 0.4444\nsamples = 3\nvalue = [2, 1]"] ;
728 -> 729 ;
730 [label="gini = 0.0\nsamples = 2\nvalue = [2, 0]"] ;
729 -> 730 ;
731 [label="gini = 0.0\nsamples = 1\nvalue = [0, 1]"] ;
729 -> 731 ;
732 [label="gini = 0.0\nsamples = 3\nvalue = [0, 3]"] ;
728 -> 732 ;
733 [label="gini = 0.0\nsamples = 3\nvalue = [3, 0]"] ;
719 -> 733 ;
734 [label="X[0] <= 49.5\ngini = 0.4012\nsamples = 18\nvalue = [5, 13]"] ;
718 -> 734 ;
735 [label="X[1] <= 112824.8984\ngini = 0.2449\nsamples = 7\nvalue = [1, 6]"] ;
734 -> 735 ;
736 [label="gini = 0.0\nsamples = 2\nvalue = [0, 2]"] ;
735 -> 736 ;
737 [label="X[1] <= 167789.25\ngini = 0.32\nsamples = 5\nvalue = [1, 4]"] ;
735 -> 737 ;
738 [label="gini = 0.4444\nsamples = 3\nvalue = [1, 2]"] ;
737 -> 738 ;
739 [label="gini = 0.0\nsamples = 2\nvalue = [0, 2]"] ;
737 -> 739 ;
740 [label="X[0] <= 50.5\ngini = 0.4628\nsamples = 11\nvalue = [4, 7]"] ;
734 -> 740 ;
741 [label="X[1] <= 118210.8438\ngini = 0.48\nsamples = 5\nvalue = [3, 2]"] ;
740 -> 741 ;
742 [label="X[1] <= 116663.25\ngini = 0.375\nsamples = 4\nvalue = [3, 1]"] ;
741 -> 742 ;
743 [label="gini = 0.0\nsamples = 1\nvalue = [1, 0]"] ;
742 -> 743 ;
744 [label="gini = 0.4444\nsamples = 3\nvalue = [2, 1]"] ;
742 -> 744 ;
745 [label="gini = 0.0\nsamples = 1\nvalue = [0, 1]"] ;
741 -> 745 ;
746 [label="X[1] <= 137524.1875\ngini = 0.2778\nsamples = 6\nvalue = [1, 5]"] ;
740 -> 746 ;
747 [label="gini = 0.0\nsamples = 5\nvalue = [0, 5]"] ;
746 -> 747 ;
748 [label="gini = 0.0\nsamples = 1\nvalue = [1, 0]"] ;
746 -> 748 ;
749 [label="gini = 0.0\nsamples = 8\nvalue = [0, 8]"] ;
715 -> 749 ;
750 [label="X[4] <= 1.5\ngini = 0.1356\nsamples = 41\nvalue = [3, 38]"] ;
604 -> 750 ;
751 [label="X[1] <= 44013.0312\ngini = 0.0571\nsamples = 34\nvalue = [1, 33]"] ;
750 -> 751 ;
752 [label="X[0] <= 61.5\ngini = 0.4444\nsamples = 3\nvalue = [1, 2]"] ;
751 -> 752 ;
753 [label="gini = 0.0\nsamples = 1\nvalue = [1, 0]"] ;
752 -> 753 ;
754 [label="gini = 0.0\nsamples = 2\nvalue = [0, 2]"] ;
752 -> 754 ;
755 [label="gini = 0.0\nsamples = 31\nvalue = [0, 31]"] ;
751 -> 755 ;
756 [label="X[0] <= 57.0\ngini = 0.4082\nsamples = 7\nvalue = [2, 5]"] ;
750 -> 756 ;
757 [label="X[1] <= 61336.2422\ngini = 0.32\nsamples = 5\nvalue = [1, 4]"] ;
756 -> 757 ;
758 [label="gini = 0.0\nsamples = 1\nvalue = [1, 0]"] ;
757 -> 758 ;
759 [label="gini = 0.0\nsamples = 4\nvalue = [0, 4]"] ;
757 -> 759 ;
760 [label="X[4] <= 4.5\ngini = 0.5\nsamples = 2\nvalue = [1, 1]"] ;
756 -> 760 ;
761 [label="gini = 0.0\nsamples = 1\nvalue = [0, 1]"] ;
760 -> 761 ;
762 [label="gini = 0.0\nsamples = 1\nvalue = [1, 0]"] ;
760 -> 762 ;
763 [label="X[9] <= 75.885\ngini = 0.4444\nsamples = 3\nvalue = [2, 1]"] ;
599 -> 763 ;
764 [label="gini = 0.0\nsamples = 1\nvalue = [0, 1]"] ;
763 -> 764 ;
765 [label="gini = 0.0\nsamples = 2\nvalue = [2, 0]"] ;
763 -> 765 ;
766 [label="X[1] <= 782672.875\ngini = 0.4444\nsamples = 3\nvalue = [2, 1]"] ;
598 -> 766 ;
767 [label="gini = 0.0\nsamples = 2\nvalue = [2, 0]"] ;
766 -> 767 ;
768 [label="gini = 0.0\nsamples = 1\nvalue = [0, 1]"] ;
766 -> 768 ;
769 [label="X[9] <= 30.21\ngini = 0.32\nsamples = 5\nvalue = [4, 1]"] ;
597 -> 769 ;
770 [label="gini = 0.0\nsamples = 4\nvalue = [4, 0]"] ;
769 -> 770 ;
771 [label="gini = 0.0\nsamples = 1\nvalue = [0, 1]"] ;
769 -> 771 ;
772 [label="X[8] <= 7.5\ngini = 0.2132\nsamples = 742\nvalue = [90, 652]"] ;
596 -> 772 ;
773 [label="X[1] <= 11107.0645\ngini = 0.2011\nsamples = 723\nvalue = [82, 641]"] ;
772 -> 773 ;
774 [label="gini = 0.0\nsamples = 1\nvalue = [1, 0]"] ;
773 -> 774 ;
775 [label="X[1] <= 100175.5625\ngini = 0.1992\nsamples = 722\nvalue = [81, 641]"] ;
773 -> 775 ;
776 [label="X[2] <= 1.965\ngini = 0.1681\nsamples = 421\nvalue = [39, 382]"] ;
775 -> 776 ;
777 [label="X[4] <= 190.5\ngini = 0.1646\nsamples = 420\nvalue = [38, 382]"] ;
776 -> 777 ;
778 [label="X[1] <= 86239.0469\ngini = 0.161\nsamples = 419\nvalue = [37, 382]"] ;
777 -> 778 ;
779 [label="X[1] <= 85489.7656\ngini = 0.1779\nsamples = 375\nvalue = [37, 338]"] ;
778 -> 779 ;
780 [label="X[5] <= 27.675\ngini = 0.1665\nsamples = 371\nvalue = [34, 337]"] ;
779 -> 780 ;
781 [label="X[1] <= 52893.0469\ngini = 0.16\nsamples = 365\nvalue = [32, 333]"] ;
780 -> 781 ;
782 [label="X[4] <= 96.0\ngini = 0.1107\nsamples = 153\nvalue = [9, 144]"] ;
781 -> 782 ;
783 [label="X[3] <= 20.73\ngini = 0.1003\nsamples = 151\nvalue = [8, 143]"] ;
782 -> 783 ;
784 [label="X[0] <= 35.5\ngini = 0.0907\nsamples = 147\nvalue = [7, 140]"] ;
783 -> 784 ;
785 [label="gini = 0.0\nsamples = 35\nvalue = [0, 35]"] ;
784 -> 785 ;
786 [label="X[0] <= 48.5\ngini = 0.1172\nsamples = 112\nvalue = [7, 105]"] ;
784 -> 786 ;
787 [label="X[0] <= 47.5\ngini = 0.1597\nsamples = 80\nvalue = [7, 73]"] ;
786 -> 787 ;
788 [label="X[4] <= 1.5\ngini = 0.1404\nsamples = 79\nvalue = [6, 73]"] ;
787 -> 788 ;
789 [label="X[1] <= 22538.4297\ngini = 0.1944\nsamples = 55\nvalue = [6, 49]"] ;
788 -> 789 ;
790 [label="X[1] <= 21020.8652\ngini = 0.4444\nsamples = 3\nvalue = [1, 2]"] ;
789 -> 790 ;
791 [label="gini = 0.0\nsamples = 2\nvalue = [0, 2]"] ;
790 -> 791 ;
792 [label="gini = 0.0\nsamples = 1\nvalue = [1, 0]"] ;
790 -> 792 ;
793 [label="X[0] <= 38.5\ngini = 0.1738\nsamples = 52\nvalue = [5, 47]"] ;
789 -> 793 ;
794 [label="gini = 0.0\nsamples = 13\nvalue = [0, 13]"] ;
793 -> 794 ;
795 [label="X[0] <= 39.5\ngini = 0.2235\nsamples = 39\nvalue = [5, 34]"] ;
793 -> 795 ;
796 [label="X[1] <= 36529.1719\ngini = 0.4082\nsamples = 7\nvalue = [2, 5]"] ;
795 -> 796 ;
797 [label="X[1] <= 33790.5898\ngini = 0.5\nsamples = 2\nvalue = [1, 1]"] ;
796 -> 797 ;
798 [label="gini = 0.0\nsamples = 1\nvalue = [0, 1]"] ;
797 -> 798 ;
799 [label="gini = 0.0\nsamples = 1\nvalue = [1, 0]"] ;
797 -> 799 ;
800 [label="X[1] <= 49313.9414\ngini = 0.32\nsamples = 5\nvalue = [1, 4]"] ;
796 -> 800 ;
801 [label="gini = 0.0\nsamples = 3\nvalue = [0, 3]"] ;
800 -> 801 ;
802 [label="X[1] <= 51167.9102\ngini = 0.5\nsamples = 2\nvalue = [1, 1]"] ;
800 -> 802 ;
803 [label="gini = 0.0\nsamples = 1\nvalue = [1, 0]"] ;
802 -> 803 ;
804 [label="gini = 0.0\nsamples = 1\nvalue = [0, 1]"] ;
802 -> 804 ;
805 [label="X[1] <= 37835.6719\ngini = 0.1699\nsamples = 32\nvalue = [3, 29]"] ;
795 -> 805 ;
806 [label="gini = 0.0\nsamples = 10\nvalue = [0, 10]"] ;
805 -> 806 ;
807 [label="X[1] <= 38077.6797\ngini = 0.2355\nsamples = 22\nvalue = [3, 19]"] ;
805 -> 807 ;
808 [label="gini = 0.0\nsamples = 1\nvalue = [1, 0]"] ;
807 -> 808 ;
809 [label="X[1] <= 46931.7305\ngini = 0.1723\nsamples = 21\nvalue = [2, 19]"] ;
807 -> 809 ;
810 [label="X[1] <= 46896.4219\ngini = 0.2778\nsamples = 12\nvalue = [2, 10]"] ;
809 -> 810 ;
811 [label="X[0] <= 44.0\ngini = 0.1653\nsamples = 11\nvalue = [1, 10]"] ;
810 -> 811 ;
812 [label="X[1] <= 39989.9844\ngini = 0.32\nsamples = 5\nvalue = [1, 4]"] ;
811 -> 812 ;
813 [label="gini = 0.0\nsamples = 2\nvalue = [0, 2]"] ;
812 -> 813 ;
814 [label="X[1] <= 40903.4531\ngini = 0.4444\nsamples = 3\nvalue = [1, 2]"] ;
812 -> 814 ;
815 [label="gini = 0.0\nsamples = 1\nvalue = [1, 0]"] ;
814 -> 815 ;
816 [label="gini = 0.0\nsamples = 2\nvalue = [0, 2]"] ;
814 -> 816 ;
817 [label="gini = 0.0\nsamples = 6\nvalue = [0, 6]"] ;
811 -> 817 ;
818 [label="gini = 0.0\nsamples = 1\nvalue = [1, 0]"] ;
810 -> 818 ;
819 [label="gini = 0.0\nsamples = 9\nvalue = [0, 9]"] ;
809 -> 819 ;
820 [label="gini = 0.0\nsamples = 24\nvalue = [0, 24]"] ;
788 -> 820 ;
821 [label="gini = 0.0\nsamples = 1\nvalue = [1, 0]"] ;
787 -> 821 ;
822 [label="gini = 0.0\nsamples = 32\nvalue = [0, 32]"] ;
786 -> 822 ;
823 [label="X[4] <= 27.0\ngini = 0.375\nsamples = 4\nvalue = [1, 3]"] ;
783 -> 823 ;
824 [label="gini = 0.0\nsamples = 1\nvalue = [1, 0]"] ;
823 -> 824 ;
825 [label="gini = 0.0\nsamples = 3\nvalue = [0, 3]"] ;
823 -> 825 ;
826 [label="X[2] <= 0.18\ngini = 0.5\nsamples = 2\nvalue = [1, 1]"] ;
782 -> 826 ;
827 [label="gini = 0.0\nsamples = 1\nvalue = [0, 1]"] ;
826 -> 827 ;
828 [label="gini = 0.0\nsamples = 1\nvalue = [1, 0]"] ;
826 -> 828 ;
829 [label="X[1] <= 53104.9375\ngini = 0.1934\nsamples = 212\nvalue = [23, 189]"] ;
781 -> 829 ;
830 [label="gini = 0.0\nsamples = 1\nvalue = [1, 0]"] ;
829 -> 830 ;
831 [label="X[1] <= 67723.3359\ngini = 0.1868\nsamples = 211\nvalue = [22, 189]"] ;
829 -> 831 ;
832 [label="X[1] <= 67519.0781\ngini = 0.2374\nsamples = 109\nvalue = [15, 94]"] ;
831 -> 832 ;
833 [label="X[0] <= 42.5\ngini = 0.2257\nsamples = 108\nvalue = [14, 94]"] ;
832 -> 833 ;
834 [label="X[1] <= 54340.2578\ngini = 0.2994\nsamples = 60\nvalue = [11, 49]"] ;
833 -> 834 ;
835 [label="X[0] <= 40.0\ngini = 0.4444\nsamples = 3\nvalue = [2, 1]"] ;
834 -> 835 ;
836 [label="gini = 0.0\nsamples = 1\nvalue = [0, 1]"] ;
835 -> 836 ;
837 [label="gini = 0.0\nsamples = 2\nvalue = [2, 0]"] ;
835 -> 837 ;
838 [label="X[1] <= 64512.4062\ngini = 0.2659\nsamples = 57\nvalue = [9, 48]"] ;
834 -> 838 ;
839 [label="X[1] <= 61583.8359\ngini = 0.1841\nsamples = 39\nvalue = [4, 35]"] ;
838 -> 839 ;
840 [label="X[1] <= 61453.0039\ngini = 0.2524\nsamples = 27\nvalue = [4, 23]"] ;
839 -> 840 ;
841 [label="X[1] <= 58781.9531\ngini = 0.2041\nsamples = 26\nvalue = [3, 23]"] ;
840 -> 841 ;
842 [label="gini = 0.0\nsamples = 11\nvalue = [0, 11]"] ;
841 -> 842 ;
843 [label="X[0] <= 40.5\ngini = 0.32\nsamples = 15\nvalue = [3, 12]"] ;
841 -> 843 ;
844 [label="X[1] <= 58796.6836\ngini = 0.2449\nsamples = 14\nvalue = [2, 12]"] ;
843 -> 844 ;
845 [label="gini = 0.0\nsamples = 1\nvalue = [1, 0]"] ;
844 -> 845 ;
846 [label="X[1] <= 59424.2109\ngini = 0.142\nsamples = 13\nvalue = [1, 12]"] ;
844 -> 846 ;
847 [label="X[1] <= 59311.8281\ngini = 0.375\nsamples = 4\nvalue = [1, 3]"] ;
846 -> 847 ;
848 [label="gini = 0.0\nsamples = 3\nvalue = [0, 3]"] ;
847 -> 848 ;
849 [label="gini = 0.0\nsamples = 1\nvalue = [1, 0]"] ;
847 -> 849 ;
850 [label="gini = 0.0\nsamples = 9\nvalue = [0, 9]"] ;
846 -> 850 ;
851 [label="gini = 0.0\nsamples = 1\nvalue = [1, 0]"] ;
843 -> 851 ;
852 [label="gini = 0.0\nsamples = 1\nvalue = [1, 0]"] ;
840 -> 852 ;
853 [label="gini = 0.0\nsamples = 12\nvalue = [0, 12]"] ;
839 -> 853 ;
854 [label="X[1] <= 64514.6562\ngini = 0.4012\nsamples = 18\nvalue = [5, 13]"] ;
838 -> 854 ;
855 [label="gini = 0.0\nsamples = 1\nvalue = [1, 0]"] ;
854 -> 855 ;
856 [label="X[4] <= 7.5\ngini = 0.3599\nsamples = 17\nvalue = [4, 13]"] ;
854 -> 856 ;
857 [label="X[8] <= 1.5\ngini = 0.426\nsamples = 13\nvalue = [4, 9]"] ;
856 -> 857 ;
858 [label="X[1] <= 66431.7188\ngini = 0.375\nsamples = 12\nvalue = [3, 9]"] ;
857 -> 858 ;
859 [label="X[6] <= 1.5\ngini = 0.5\nsamples = 6\nvalue = [3, 3]"] ;
858 -> 859 ;
860 [label="X[1] <= 65395.2305\ngini = 0.48\nsamples = 5\nvalue = [2, 3]"] ;
859 -> 860 ;
861 [label="gini = 0.0\nsamples = 2\nvalue = [0, 2]"] ;
860 -> 861 ;
862 [label="X[0] <= 32.5\ngini = 0.4444\nsamples = 3\nvalue = [2, 1]"] ;
860 -> 862 ;
863 [label="gini = 0.0\nsamples = 1\nvalue = [0, 1]"] ;
862 -> 863 ;
864 [label="gini = 0.0\nsamples = 2\nvalue = [2, 0]"] ;
862 -> 864 ;
865 [label="gini = 0.0\nsamples = 1\nvalue = [1, 0]"] ;
859 -> 865 ;
866 [label="gini = 0.0\nsamples = 6\nvalue = [0, 6]"] ;
858 -> 866 ;
867 [label="gini = 0.0\nsamples = 1\nvalue = [1, 0]"] ;
857 -> 867 ;
868 [label="gini = 0.0\nsamples = 4\nvalue = [0, 4]"] ;
856 -> 868 ;
869 [label="X[0] <= 52.0\ngini = 0.1172\nsamples = 48\nvalue = [3, 45]"] ;
833 -> 869 ;
870 [label="X[0] <= 47.5\ngini = 0.18\nsamples = 30\nvalue = [3, 27]"] ;
869 -> 870 ;
871 [label="gini = 0.0\nsamples = 12\nvalue = [0, 12]"] ;
870 -> 871 ;
872 [label="X[1] <= 61117.2891\ngini = 0.2778\nsamples = 18\nvalue = [3, 15]"] ;
870 -> 872 ;
873 [label="X[0] <= 48.5\ngini = 0.142\nsamples = 13\nvalue = [1, 12]"] ;
872 -> 873 ;
874 [label="X[6] <= 1.5\ngini = 0.375\nsamples = 4\nvalue = [1, 3]"] ;
873 -> 874 ;
875 [label="X[1] <= 58555.3359\ngini = 0.5\nsamples = 2\nvalue = [1, 1]"] ;
874 -> 875 ;
876 [label="gini = 0.0\nsamples = 1\nvalue = [1, 0]"] ;
875 -> 876 ;
877 [label="gini = 0.0\nsamples = 1\nvalue = [0, 1]"] ;
875 -> 877 ;
878 [label="gini = 0.0\nsamples = 2\nvalue = [0, 2]"] ;
874 -> 878 ;
879 [label="gini = 0.0\nsamples = 9\nvalue = [0, 9]"] ;
873 -> 879 ;
880 [label="X[1] <= 62944.3516\ngini = 0.48\nsamples = 5\nvalue = [2, 3]"] ;
872 -> 880 ;
881 [label="gini = 0.0\nsamples = 2\nvalue = [2, 0]"] ;
880 -> 881 ;
882 [label="gini = 0.0\nsamples = 3\nvalue = [0, 3]"] ;
880 -> 882 ;
883 [label="gini = 0.0\nsamples = 18\nvalue = [0, 18]"] ;
869 -> 883 ;
884 [label="gini = 0.0\nsamples = 1\nvalue = [1, 0]"] ;
832 -> 884 ;
885 [label="X[0] <= 49.5\ngini = 0.1278\nsamples = 102\nvalue = [7, 95]"] ;
831 -> 885 ;
886 [label="X[0] <= 31.5\ngini = 0.0519\nsamples = 75\nvalue = [2, 73]"] ;
885 -> 886 ;
887 [label="X[6] <= 1.5\ngini = 0.32\nsamples = 5\nvalue = [1, 4]"] ;
886 -> 887 ;
888 [label="X[1] <= 80822.8359\ngini = 0.5\nsamples = 2\nvalue = [1, 1]"] ;
887 -> 888 ;
889 [label="gini = 0.0\nsamples = 1\nvalue = [1, 0]"] ;
888 -> 889 ;
890 [label="gini = 0.0\nsamples = 1\nvalue = [0, 1]"] ;
888 -> 890 ;
891 [label="gini = 0.0\nsamples = 3\nvalue = [0, 3]"] ;
887 -> 891 ;
892 [label="X[1] <= 80182.8438\ngini = 0.0282\nsamples = 70\nvalue = [1, 69]"] ;
886 -> 892 ;
893 [label="gini = 0.0\nsamples = 51\nvalue = [0, 51]"] ;
892 -> 893 ;
894 [label="X[1] <= 80397.9766\ngini = 0.0997\nsamples = 19\nvalue = [1, 18]"] ;
892 -> 894 ;
895 [label="gini = 0.0\nsamples = 1\nvalue = [1, 0]"] ;
894 -> 895 ;
896 [label="gini = 0.0\nsamples = 18\nvalue = [0, 18]"] ;
894 -> 896 ;
897 [label="X[4] <= 1.5\ngini = 0.3018\nsamples = 27\nvalue = [5, 22]"] ;
885 -> 897 ;
898 [label="X[1] <= 83013.3125\ngini = 0.3628\nsamples = 21\nvalue = [5, 16]"] ;
897 -> 898 ;
899 [label="X[0] <= 54.5\ngini = 0.2907\nsamples = 17\nvalue = [3, 14]"] ;
898 -> 899 ;
900 [label="X[1] <= 78845.6875\ngini = 0.1528\nsamples = 12\nvalue = [1, 11]"] ;
899 -> 900 ;
901 [label="gini = 0.0\nsamples = 8\nvalue = [0, 8]"] ;
900 -> 901 ;
902 [label="X[0] <= 52.5\ngini = 0.375\nsamples = 4\nvalue = [1, 3]"] ;
900 -> 902 ;
903 [label="gini = 0.0\nsamples = 1\nvalue = [1, 0]"] ;
902 -> 903 ;
904 [label="gini = 0.0\nsamples = 3\nvalue = [0, 3]"] ;
902 -> 904 ;
905 [label="X[1] <= 79087.125\ngini = 0.48\nsamples = 5\nvalue = [2, 3]"] ;
899 -> 905 ;
906 [label="X[0] <= 60.5\ngini = 0.4444\nsamples = 3\nvalue = [2, 1]"] ;
905 -> 906 ;
907 [label="gini = 0.0\nsamples = 2\nvalue = [2, 0]"] ;
906 -> 907 ;
908 [label="gini = 0.0\nsamples = 1\nvalue = [0, 1]"] ;
906 -> 908 ;
909 [label="gini = 0.0\nsamples = 2\nvalue = [0, 2]"] ;
905 -> 909 ;
910 [label="X[1] <= 83904.1797\ngini = 0.5\nsamples = 4\nvalue = [2, 2]"] ;
898 -> 910 ;
911 [label="gini = 0.0\nsamples = 2\nvalue = [2, 0]"] ;
910 -> 911 ;
912 [label="gini = 0.0\nsamples = 2\nvalue = [0, 2]"] ;
910 -> 912 ;
913 [label="gini = 0.0\nsamples = 6\nvalue = [0, 6]"] ;
897 -> 913 ;
914 [label="X[3] <= 59.1\ngini = 0.4444\nsamples = 6\nvalue = [2, 4]"] ;
780 -> 914 ;
915 [label="gini = 0.0\nsamples = 2\nvalue = [2, 0]"] ;
914 -> 915 ;
916 [label="gini = 0.0\nsamples = 4\nvalue = [0, 4]"] ;
914 -> 916 ;
917 [label="X[8] <= 1.5\ngini = 0.375\nsamples = 4\nvalue = [3, 1]"] ;
779 -> 917 ;
918 [label="gini = 0.0\nsamples = 3\nvalue = [3, 0]"] ;
917 -> 918 ;
919 [label="gini = 0.0\nsamples = 1\nvalue = [0, 1]"] ;
917 -> 919 ;
920 [label="gini = 0.0\nsamples = 44\nvalue = [0, 44]"] ;
778 -> 920 ;
921 [label="gini = 0.0\nsamples = 1\nvalue = [1, 0]"] ;
777 -> 921 ;
922 [label="gini = 0.0\nsamples = 1\nvalue = [1, 0]"] ;
776 -> 922 ;
923 [label="X[1] <= 101559.7969\ngini = 0.2401\nsamples = 301\nvalue = [42, 259]"] ;
775 -> 923 ;
924 [label="X[0] <= 47.0\ngini = 0.375\nsamples = 4\nvalue = [3, 1]"] ;
923 -> 924 ;
925 [label="gini = 0.0\nsamples = 3\nvalue = [3, 0]"] ;
924 -> 925 ;
926 [label="gini = 0.0\nsamples = 1\nvalue = [0, 1]"] ;
924 -> 926 ;
927 [label="X[1] <= 177950.7812\ngini = 0.2281\nsamples = 297\nvalue = [39, 258]"] ;
923 -> 927 ;
928 [label="X[1] <= 126500.9062\ngini = 0.2449\nsamples = 266\nvalue = [38, 228]"] ;
927 -> 928 ;
929 [label="X[9] <= 2592.54\ngini = 0.2076\nsamples = 221\nvalue = [26, 195]"] ;
928 -> 929 ;
930 [label="X[2] <= -0.405\ngini = 0.2022\nsamples = 219\nvalue = [25, 194]"] ;
929 -> 930 ;
931 [label="X[2] <= -16.905\ngini = 0.5\nsamples = 2\nvalue = [1, 1]"] ;
930 -> 931 ;
932 [label="gini = 0.0\nsamples = 1\nvalue = [0, 1]"] ;
931 -> 932 ;
933 [label="gini = 0.0\nsamples = 1\nvalue = [1, 0]"] ;
931 -> 933 ;
934 [label="X[6] <= 21.0\ngini = 0.1967\nsamples = 217\nvalue = [24, 193]"] ;
930 -> 934 ;
935 [label="X[4] <= 7.5\ngini = 0.1911\nsamples = 215\nvalue = [23, 192]"] ;
934 -> 935 ;
936 [label="X[0] <= 43.5\ngini = 0.2118\nsamples = 191\nvalue = [23, 168]"] ;
935 -> 936 ;
937 [label="X[4] <= 4.5\ngini = 0.1678\nsamples = 119\nvalue = [11, 108]"] ;
936 -> 937 ;
938 [label="X[6] <= 1.5\ngini = 0.1478\nsamples = 112\nvalue = [9, 103]"] ;
937 -> 938 ;
939 [label="X[0] <= 42.5\ngini = 0.1623\nsamples = 101\nvalue = [9, 92]"] ;
938 -> 939 ;
940 [label="X[1] <= 106869.3906\ngini = 0.1748\nsamples = 93\nvalue = [9, 84]"] ;
939 -> 940 ;
941 [label="X[1] <= 104825.25\ngini = 0.375\nsamples = 4\nvalue = [1, 3]"] ;
940 -> 941 ;
942 [label="gini = 0.0\nsamples = 3\nvalue = [0, 3]"] ;
941 -> 942 ;
943 [label="gini = 0.0\nsamples = 1\nvalue = [1, 0]"] ;
941 -> 943 ;
944 [label="X[1] <= 117304.375\ngini = 0.1636\nsamples = 89\nvalue = [8, 81]"] ;
940 -> 944 ;
945 [label="gini = 0.0\nsamples = 11\nvalue = [0, 11]"] ;
944 -> 945 ;
946 [label="X[0] <= 31.5\ngini = 0.1841\nsamples = 78\nvalue = [8, 70]"] ;
944 -> 946 ;
947 [label="gini = 0.0\nsamples = 7\nvalue = [0, 7]"] ;
946 -> 947 ;
948 [label="X[1] <= 121704.7344\ngini = 0.2\nsamples = 71\nvalue = [8, 63]"] ;
946 -> 948 ;
949 [label="X[1] <= 121000.6719\ngini = 0.2103\nsamples = 67\nvalue = [8, 59]"] ;
948 -> 949 ;
950 [label="X[0] <= 34.5\ngini = 0.1896\nsamples = 66\nvalue = [7, 59]"] ;
949 -> 950 ;
951 [label="X[4] <= 1.5\ngini = 0.255\nsamples = 20\nvalue = [3, 17]"] ;
950 -> 951 ;
952 [label="X[0] <= 32.5\ngini = 0.2907\nsamples = 17\nvalue = [3, 14]"] ;
951 -> 952 ;
953 [label="gini = 0.2449\nsamples = 7\nvalue = [1, 6]"] ;
952 -> 953 ;
954 [label="X[0] <= 33.5\ngini = 0.32\nsamples = 10\nvalue = [2, 8]"] ;
952 -> 954 ;
955 [label="gini = 0.375\nsamples = 4\nvalue = [1, 3]"] ;
954 -> 955 ;
956 [label="gini = 0.2778\nsamples = 6\nvalue = [1, 5]"] ;
954 -> 956 ;
957 [label="gini = 0.0\nsamples = 3\nvalue = [0, 3]"] ;
951 -> 957 ;
958 [label="X[0] <= 40.5\ngini = 0.1588\nsamples = 46\nvalue = [4, 42]"] ;
950 -> 958 ;
959 [label="X[0] <= 36.5\ngini = 0.1107\nsamples = 34\nvalue = [2, 32]"] ;
958 -> 959 ;
960 [label="gini = 0.0\nsamples = 10\nvalue = [0, 10]"] ;
959 -> 960 ;
961 [label="X[0] <= 38.5\ngini = 0.1528\nsamples = 24\nvalue = [2, 22]"] ;
959 -> 961 ;
962 [label="X[4] <= 1.5\ngini = 0.2311\nsamples = 15\nvalue = [2, 13]"] ;
961 -> 962 ;
963 [label="X[1] <= 118015.6172\ngini = 0.2604\nsamples = 13\nvalue = [2, 11]"] ;
962 -> 963 ;
964 [label="X[0] <= 37.5\ngini = 0.2778\nsamples = 12\nvalue = [2, 10]"] ;
963 -> 964 ;
965 [label="gini = 0.2778\nsamples = 6\nvalue = [1, 5]"] ;
964 -> 965 ;
966 [label="gini = 0.2778\nsamples = 6\nvalue = [1, 5]"] ;
964 -> 966 ;
967 [label="gini = 0.0\nsamples = 1\nvalue = [0, 1]"] ;
963 -> 967 ;
968 [label="gini = 0.0\nsamples = 2\nvalue = [0, 2]"] ;
962 -> 968 ;
969 [label="gini = 0.0\nsamples = 9\nvalue = [0, 9]"] ;
961 -> 969 ;
970 [label="X[0] <= 41.5\ngini = 0.2778\nsamples = 12\nvalue = [2, 10]"] ;
958 -> 970 ;
971 [label="gini = 0.375\nsamples = 4\nvalue = [1, 3]"] ;
970 -> 971 ;
972 [label="X[4] <= 1.5\ngini = 0.2188\nsamples = 8\nvalue = [1, 7]"] ;
970 -> 972 ;
973 [label="gini = 0.0\nsamples = 4\nvalue = [0, 4]"] ;
972 -> 973 ;
974 [label="X[1] <= 118949.8906\ngini = 0.375\nsamples = 4\nvalue = [1, 3]"] ;
972 -> 974 ;
975 [label="gini = 0.4444\nsamples = 3\nvalue = [1, 2]"] ;
974 -> 975 ;
976 [label="gini = 0.0\nsamples = 1\nvalue = [0, 1]"] ;
974 -> 976 ;
977 [label="gini = 0.0\nsamples = 1\nvalue = [1, 0]"] ;
949 -> 977 ;
978 [label="gini = 0.0\nsamples = 4\nvalue = [0, 4]"] ;
948 -> 978 ;
979 [label="gini = 0.0\nsamples = 8\nvalue = [0, 8]"] ;
939 -> 979 ;
980 [label="gini = 0.0\nsamples = 11\nvalue = [0, 11]"] ;
938 -> 980 ;
981 [label="X[0] <= 38.0\ngini = 0.4082\nsamples = 7\nvalue = [2, 5]"] ;
937 -> 981 ;
982 [label="gini = 0.0\nsamples = 5\nvalue = [0, 5]"] ;
981 -> 982 ;
983 [label="gini = 0.0\nsamples = 2\nvalue = [2, 0]"] ;
981 -> 983 ;
984 [label="X[0] <= 45.5\ngini = 0.2778\nsamples = 72\nvalue = [12, 60]"] ;
936 -> 984 ;
985 [label="X[1] <= 116784.8516\ngini = 0.4922\nsamples = 16\nvalue = [7, 9]"] ;
984 -> 985 ;
986 [label="gini = 0.0\nsamples = 2\nvalue = [2, 0]"] ;
985 -> 986 ;
987 [label="X[1] <= 118796.8906\ngini = 0.4592\nsamples = 14\nvalue = [5, 9]"] ;
985 -> 987 ;
988 [label="X[4] <= 1.5\ngini = 0.426\nsamples = 13\nvalue = [4, 9]"] ;
987 -> 988 ;
989 [label="X[0] <= 44.5\ngini = 0.375\nsamples = 12\nvalue = [3, 9]"] ;
988 -> 989 ;
990 [label="gini = 0.5\nsamples = 2\nvalue = [1, 1]"] ;
989 -> 990 ;
991 [label="X[6] <= 1.5\ngini = 0.32\nsamples = 10\nvalue = [2, 8]"] ;
989 -> 991 ;
992 [label="gini = 0.375\nsamples = 8\nvalue = [2, 6]"] ;
991 -> 992 ;
993 [label="gini = 0.0\nsamples = 2\nvalue = [0, 2]"] ;
991 -> 993 ;
994 [label="gini = 0.0\nsamples = 1\nvalue = [1, 0]"] ;
988 -> 994 ;
995 [label="gini = 0.0\nsamples = 1\nvalue = [1, 0]"] ;
987 -> 995 ;
996 [label="X[1] <= 116869.9375\ngini = 0.1626\nsamples = 56\nvalue = [5, 51]"] ;
984 -> 996 ;
997 [label="gini = 0.0\nsamples = 13\nvalue = [0, 13]"] ;
996 -> 997 ;
998 [label="X[0] <= 47.5\ngini = 0.2055\nsamples = 43\nvalue = [5, 38]"] ;
996 -> 998 ;
999 [label="gini = 0.0\nsamples = 8\nvalue = [0, 8]"] ;
998 -> 999 ;
1000 [label="X[0] <= 52.5\ngini = 0.2449\nsamples = 35\nvalue = [5, 30]"] ;
998 -> 1000 ;
1001 [label="X[0] <= 51.5\ngini = 0.355\nsamples = 13\nvalue = [3, 10]"] ;
1000 -> 1001 ;
1002 [label="X[0] <= 50.5\ngini = 0.2975\nsamples = 11\nvalue = [2, 9]"] ;
1001 -> 1002 ;
1003 [label="X[0] <= 49.5\ngini = 0.3457\nsamples = 9\nvalue = [2, 7]"] ;
1002 -> 1003 ;
1004 [label="X[0] <= 48.5\ngini = 0.2449\nsamples = 7\nvalue = [1, 6]"] ;
1003 -> 1004 ;
1005 [label="X[6] <= 1.5\ngini = 0.375\nsamples = 4\nvalue = [1, 3]"] ;
1004 -> 1005 ;
1006 [label="gini = 0.4444\nsamples = 3\nvalue = [1, 2]"] ;
1005 -> 1006 ;
1007 [label="gini = 0.0\nsamples = 1\nvalue = [0, 1]"] ;
1005 -> 1007 ;
1008 [label="gini = 0.0\nsamples = 3\nvalue = [0, 3]"] ;
1004 -> 1008 ;
1009 [label="gini = 0.5\nsamples = 2\nvalue = [1, 1]"] ;
1003 -> 1009 ;
1010 [label="gini = 0.0\nsamples = 2\nvalue = [0, 2]"] ;
1002 -> 1010 ;
1011 [label="X[4] <= 1.5\ngini = 0.5\nsamples = 2\nvalue = [1, 1]"] ;
1001 -> 1011 ;
1012 [label="gini = 0.0\nsamples = 1\nvalue = [1, 0]"] ;
1011 -> 1012 ;
1013 [label="gini = 0.0\nsamples = 1\nvalue = [0, 1]"] ;
1011 -> 1013 ;
1014 [label="X[0] <= 57.5\ngini = 0.1653\nsamples = 22\nvalue = [2, 20]"] ;
1000 -> 1014 ;
1015 [label="gini = 0.0\nsamples = 12\nvalue = [0, 12]"] ;
1014 -> 1015 ;
1016 [label="X[0] <= 61.0\ngini = 0.32\nsamples = 10\nvalue = [2, 8]"] ;
1014 -> 1016 ;
1017 [label="X[4] <= 1.5\ngini = 0.5\nsamples = 4\nvalue = [2, 2]"] ;
1016 -> 1017 ;
1018 [label="X[0] <= 59.0\ngini = 0.4444\nsamples = 3\nvalue = [2, 1]"] ;
1017 -> 1018 ;
1019 [label="gini = 0.0\nsamples = 1\nvalue = [1, 0]"] ;
1018 -> 1019 ;
1020 [label="gini = 0.5\nsamples = 2\nvalue = [1, 1]"] ;
1018 -> 1020 ;
1021 [label="gini = 0.0\nsamples = 1\nvalue = [0, 1]"] ;
1017 -> 1021 ;
1022 [label="gini = 0.0\nsamples = 6\nvalue = [0, 6]"] ;
1016 -> 1022 ;
1023 [label="gini = 0.0\nsamples = 24\nvalue = [0, 24]"] ;
935 -> 1023 ;
1024 [label="X[8] <= 3.0\ngini = 0.5\nsamples = 2\nvalue = [1, 1]"] ;
934 -> 1024 ;
1025 [label="gini = 0.0\nsamples = 1\nvalue = [1, 0]"] ;
1024 -> 1025 ;
1026 [label="gini = 0.0\nsamples = 1\nvalue = [0, 1]"] ;
1024 -> 1026 ;
1027 [label="X[8] <= 3.0\ngini = 0.5\nsamples = 2\nvalue = [1, 1]"] ;
929 -> 1027 ;
1028 [label="gini = 0.0\nsamples = 1\nvalue = [1, 0]"] ;
1027 -> 1028 ;
1029 [label="gini = 0.0\nsamples = 1\nvalue = [0, 1]"] ;
1027 -> 1029 ;
1030 [label="X[0] <= 42.5\ngini = 0.3911\nsamples = 45\nvalue = [12, 33]"] ;
928 -> 1030 ;
1031 [label="X[0] <= 31.5\ngini = 0.4861\nsamples = 24\nvalue = [10, 14]"] ;
1030 -> 1031 ;
1032 [label="gini = 0.0\nsamples = 2\nvalue = [2, 0]"] ;
1031 -> 1032 ;
1033 [label="X[1] <= 128609.8906\ngini = 0.4628\nsamples = 22\nvalue = [8, 14]"] ;
1031 -> 1033 ;
1034 [label="gini = 0.0\nsamples = 2\nvalue = [2, 0]"] ;
1033 -> 1034 ;
1035 [label="X[0] <= 41.5\ngini = 0.42\nsamples = 20\nvalue = [6, 14]"] ;
1033 -> 1035 ;
1036 [label="X[0] <= 40.5\ngini = 0.3599\nsamples = 17\nvalue = [4, 13]"] ;
1035 -> 1036 ;
1037 [label="X[1] <= 141355.9375\ngini = 0.426\nsamples = 13\nvalue = [4, 9]"] ;
1036 -> 1037 ;
1038 [label="gini = 0.0\nsamples = 3\nvalue = [0, 3]"] ;
1037 -> 1038 ;
1039 [label="X[1] <= 144699.0312\ngini = 0.48\nsamples = 10\nvalue = [4, 6]"] ;
1037 -> 1039 ;
1040 [label="gini = 0.0\nsamples = 2\nvalue = [2, 0]"] ;
1039 -> 1040 ;
1041 [label="X[4] <= 1.5\ngini = 0.375\nsamples = 8\nvalue = [2, 6]"] ;
1039 -> 1041 ;
1042 [label="X[0] <= 36.5\ngini = 0.48\nsamples = 5\nvalue = [2, 3]"] ;
1041 -> 1042 ;
1043 [label="X[1] <= 172519.8438\ngini = 0.4444\nsamples = 3\nvalue = [2, 1]"] ;
1042 -> 1043 ;
1044 [label="gini = 0.0\nsamples = 2\nvalue = [2, 0]"] ;
1043 -> 1044 ;
1045 [label="gini = 0.0\nsamples = 1\nvalue = [0, 1]"] ;
1043 -> 1045 ;
1046 [label="gini = 0.0\nsamples = 2\nvalue = [0, 2]"] ;
1042 -> 1046 ;
1047 [label="gini = 0.0\nsamples = 3\nvalue = [0, 3]"] ;
1041 -> 1047 ;
1048 [label="gini = 0.0\nsamples = 4\nvalue = [0, 4]"] ;
1036 -> 1048 ;
1049 [label="X[2] <= -254.28\ngini = 0.4444\nsamples = 3\nvalue = [2, 1]"] ;
1035 -> 1049 ;
1050 [label="gini = 0.0\nsamples = 1\nvalue = [0, 1]"] ;
1049 -> 1050 ;
1051 [label="gini = 0.0\nsamples = 2\nvalue = [2, 0]"] ;
1049 -> 1051 ;
1052 [label="X[0] <= 51.5\ngini = 0.1723\nsamples = 21\nvalue = [2, 19]"] ;
1030 -> 1052 ;
1053 [label="gini = 0.0\nsamples = 12\nvalue = [0, 12]"] ;
1052 -> 1053 ;
1054 [label="X[0] <= 55.5\ngini = 0.3457\nsamples = 9\nvalue = [2, 7]"] ;
1052 -> 1054 ;
1055 [label="gini = 0.0\nsamples = 2\nvalue = [2, 0]"] ;
1054 -> 1055 ;
1056 [label="gini = 0.0\nsamples = 7\nvalue = [0, 7]"] ;
1054 -> 1056 ;
1057 [label="X[0] <= 31.5\ngini = 0.0624\nsamples = 31\nvalue = [1, 30]"] ;
927 -> 1057 ;
1058 [label="X[1] <= 217607.6094\ngini = 0.375\nsamples = 4\nvalue = [1, 3]"] ;
1057 -> 1058 ;
1059 [label="gini = 0.0\nsamples = 2\nvalue = [0, 2]"] ;
1058 -> 1059 ;
1060 [label="X[1] <= 259856.625\ngini = 0.5\nsamples = 2\nvalue = [1, 1]"] ;
1058 -> 1060 ;
1061 [label="gini = 0.0\nsamples = 1\nvalue = [1, 0]"] ;
1060 -> 1061 ;
1062 [label="gini = 0.0\nsamples = 1\nvalue = [0, 1]"] ;
1060 -> 1062 ;
1063 [label="gini = 0.0\nsamples = 27\nvalue = [0, 27]"] ;
1057 -> 1063 ;
1064 [label="X[1] <= 139709.2188\ngini = 0.4875\nsamples = 19\nvalue = [8, 11]"] ;
772 -> 1064 ;
1065 [label="X[8] <= 10.5\ngini = 0.3911\nsamples = 15\nvalue = [4, 11]"] ;
1064 -> 1065 ;
1066 [label="X[1] <= 87300.2969\ngini = 0.48\nsamples = 5\nvalue = [3, 2]"] ;
1065 -> 1066 ;
1067 [label="X[1] <= 51057.1641\ngini = 0.4444\nsamples = 3\nvalue = [1, 2]"] ;
1066 -> 1067 ;
1068 [label="gini = 0.0\nsamples = 1\nvalue = [1, 0]"] ;
1067 -> 1068 ;
1069 [label="gini = 0.0\nsamples = 2\nvalue = [0, 2]"] ;
1067 -> 1069 ;
1070 [label="gini = 0.0\nsamples = 2\nvalue = [2, 0]"] ;
1066 -> 1070 ;
1071 [label="X[5] <= 151.5\ngini = 0.18\nsamples = 10\nvalue = [1, 9]"] ;
1065 -> 1071 ;
1072 [label="gini = 0.0\nsamples = 9\nvalue = [0, 9]"] ;
1071 -> 1072 ;
1073 [label="gini = 0.0\nsamples = 1\nvalue = [1, 0]"] ;
1071 -> 1073 ;
1074 [label="gini = 0.0\nsamples = 4\nvalue = [4, 0]"] ;
1064 -> 1074 ;
1075 [label="X[1] <= 51703.4844\ngini = 0.4764\nsamples = 46\nvalue = [18, 28]"] ;
595 -> 1075 ;
1076 [label="gini = 0.0\nsamples = 4\nvalue = [4, 0]"] ;
1075 -> 1076 ;
1077 [label="X[1] <= 103558.7266\ngini = 0.4444\nsamples = 42\nvalue = [14, 28]"] ;
1075 -> 1077 ;
1078 [label="X[8] <= 1.5\ngini = 0.2907\nsamples = 17\nvalue = [3, 14]"] ;
1077 -> 1078 ;
1079 [label="X[6] <= 3.0\ngini = 0.375\nsamples = 12\nvalue = [3, 9]"] ;
1078 -> 1079 ;
1080 [label="X[0] <= 68.0\ngini = 0.2975\nsamples = 11\nvalue = [2, 9]"] ;
1079 -> 1080 ;
1081 [label="X[4] <= 1.5\ngini = 0.5\nsamples = 2\nvalue = [1, 1]"] ;
1080 -> 1081 ;
1082 [label="gini = 0.0\nsamples = 1\nvalue = [1, 0]"] ;
1081 -> 1082 ;
1083 [label="gini = 0.0\nsamples = 1\nvalue = [0, 1]"] ;
1081 -> 1083 ;
1084 [label="X[1] <= 70841.2812\ngini = 0.1975\nsamples = 9\nvalue = [1, 8]"] ;
1080 -> 1084 ;
1085 [label="X[1] <= 66656.0234\ngini = 0.4444\nsamples = 3\nvalue = [1, 2]"] ;
1084 -> 1085 ;
1086 [label="gini = 0.0\nsamples = 2\nvalue = [0, 2]"] ;
1085 -> 1086 ;
1087 [label="gini = 0.0\nsamples = 1\nvalue = [1, 0]"] ;
1085 -> 1087 ;
1088 [label="gini = 0.0\nsamples = 6\nvalue = [0, 6]"] ;
1084 -> 1088 ;
1089 [label="gini = 0.0\nsamples = 1\nvalue = [1, 0]"] ;
1079 -> 1089 ;
1090 [label="gini = 0.0\nsamples = 5\nvalue = [0, 5]"] ;
1078 -> 1090 ;
1091 [label="X[4] <= 4.5\ngini = 0.4928\nsamples = 25\nvalue = [11, 14]"] ;
1077 -> 1091 ;
1092 [label="X[1] <= 117343.4688\ngini = 0.4938\nsamples = 18\nvalue = [10, 8]"] ;
1091 -> 1092 ;
1093 [label="X[7] <= 1.0\ngini = 0.4898\nsamples = 14\nvalue = [6, 8]"] ;
1092 -> 1093 ;
1094 [label="X[0] <= 71.0\ngini = 0.32\nsamples = 5\nvalue = [4, 1]"] ;
1093 -> 1094 ;
1095 [label="gini = 0.0\nsamples = 1\nvalue = [0, 1]"] ;
1094 -> 1095 ;
1096 [label="gini = 0.0\nsamples = 4\nvalue = [4, 0]"] ;
1094 -> 1096 ;
1097 [label="X[1] <= 112974.7812\ngini = 0.3457\nsamples = 9\nvalue = [2, 7]"] ;
1093 -> 1097 ;
1098 [label="gini = 0.0\nsamples = 1\nvalue = [1, 0]"] ;
1097 -> 1098 ;
1099 [label="X[0] <= 75.5\ngini = 0.2188\nsamples = 8\nvalue = [1, 7]"] ;
1097 -> 1099 ;
1100 [label="gini = 0.0\nsamples = 5\nvalue = [0, 5]"] ;
1099 -> 1100 ;
1101 [label="X[0] <= 78.5\ngini = 0.4444\nsamples = 3\nvalue = [1, 2]"] ;
1099 -> 1101 ;
1102 [label="gini = 0.0\nsamples = 1\nvalue = [1, 0]"] ;
1101 -> 1102 ;
1103 [label="gini = 0.0\nsamples = 2\nvalue = [0, 2]"] ;
1101 -> 1103 ;
1104 [label="gini = 0.0\nsamples = 4\nvalue = [4, 0]"] ;
1092 -> 1104 ;
1105 [label="X[8] <= 4.5\ngini = 0.2449\nsamples = 7\nvalue = [1, 6]"] ;
1091 -> 1105 ;
1106 [label="gini = 0.0\nsamples = 6\nvalue = [0, 6]"] ;
1105 -> 1106 ;
1107 [label="gini = 0.0\nsamples = 1\nvalue = [1, 0]"] ;
1105 -> 1107 ;
1108 [label="X[2] <= 513.105\ngini = 0.4944\nsamples = 1585\nvalue = [876, 709]"] ;
442 -> 1108 ;
1109 [label="X[0] <= 34.5\ngini = 0.4949\nsamples = 997\nvalue = [448, 549]"] ;
1108 -> 1109 ;
1110 [label="X[3] <= 84.51\ngini = 0.4883\nsamples = 477\nvalue = [275, 202]"] ;
1109 -> 1110 ;
1111 [label="X[6] <= 1.5\ngini = 0.4964\nsamples = 378\nvalue = [205, 173]"] ;
1110 -> 1111 ;
1112 [label="X[7] <= 0.5\ngini = 0.4854\nsamples = 287\nvalue = [168, 119]"] ;
1111 -> 1112 ;
1113 [label="X[0] <= 31.5\ngini = 0.437\nsamples = 31\nvalue = [10, 21]"] ;
1112 -> 1113 ;
1114 [label="X[5] <= 1.515\ngini = 0.375\nsamples = 28\nvalue = [7, 21]"] ;
1113 -> 1114 ;
1115 [label="X[3] <= 2.88\ngini = 0.1244\nsamples = 15\nvalue = [1, 14]"] ;
1114 -> 1115 ;
1116 [label="X[1] <= 89620.0625\ngini = 0.5\nsamples = 2\nvalue = [1, 1]"] ;
1115 -> 1116 ;
1117 [label="gini = 0.0\nsamples = 1\nvalue = [0, 1]"] ;
1116 -> 1117 ;
1118 [label="gini = 0.0\nsamples = 1\nvalue = [1, 0]"] ;
1116 -> 1118 ;
1119 [label="gini = 0.0\nsamples = 13\nvalue = [0, 13]"] ;
1115 -> 1119 ;
1120 [label="X[1] <= 100080.9141\ngini = 0.497\nsamples = 13\nvalue = [6, 7]"] ;
1114 -> 1120 ;
1121 [label="X[0] <= 26.5\ngini = 0.3457\nsamples = 9\nvalue = [2, 7]"] ;
1120 -> 1121 ;
1122 [label="gini = 0.0\nsamples = 3\nvalue = [0, 3]"] ;
1121 -> 1122 ;
1123 [label="X[5] <= 2.475\ngini = 0.4444\nsamples = 6\nvalue = [2, 4]"] ;
1121 -> 1123 ;
1124 [label="X[1] <= 47399.9102\ngini = 0.5\nsamples = 4\nvalue = [2, 2]"] ;
1123 -> 1124 ;
1125 [label="gini = 0.0\nsamples = 1\nvalue = [1, 0]"] ;
1124 -> 1125 ;
1126 [label="X[5] <= 2.37\ngini = 0.4444\nsamples = 3\nvalue = [1, 2]"] ;
1124 -> 1126 ;
1127 [label="gini = 0.0\nsamples = 2\nvalue = [0, 2]"] ;
1126 -> 1127 ;
1128 [label="gini = 0.0\nsamples = 1\nvalue = [1, 0]"] ;
1126 -> 1128 ;
1129 [label="gini = 0.0\nsamples = 2\nvalue = [0, 2]"] ;
1123 -> 1129 ;
1130 [label="gini = 0.0\nsamples = 4\nvalue = [4, 0]"] ;
1120 -> 1130 ;
1131 [label="gini = 0.0\nsamples = 3\nvalue = [3, 0]"] ;
1113 -> 1131 ;
1132 [label="X[2] <= 8.355\ngini = 0.4725\nsamples = 256\nvalue = [158, 98]"] ;
1112 -> 1132 ;
1133 [label="X[9] <= 55.71\ngini = 0.4886\nsamples = 219\nvalue = [126, 93]"] ;
1132 -> 1133 ;
1134 [label="X[1] <= 496026.75\ngini = 0.4842\nsamples = 214\nvalue = [126, 88]"] ;
1133 -> 1134 ;
1135 [label="X[1] <= 132057.3281\ngini = 0.4822\nsamples = 212\nvalue = [126, 86]"] ;
1134 -> 1135 ;
1136 [label="X[3] <= 2.94\ngini = 0.4907\nsamples = 183\nvalue = [104, 79]"] ;
1135 -> 1136 ;
1137 [label="X[1] <= 59364.4062\ngini = 0.375\nsamples = 8\nvalue = [2, 6]"] ;
1136 -> 1137 ;
1138 [label="X[1] <= 51552.2852\ngini = 0.48\nsamples = 5\nvalue = [2, 3]"] ;
1137 -> 1138 ;
1139 [label="gini = 0.0\nsamples = 2\nvalue = [0, 2]"] ;
1138 -> 1139 ;
1140 [label="X[0] <= 27.5\ngini = 0.4444\nsamples = 3\nvalue = [2, 1]"] ;
1138 -> 1140 ;
1141 [label="gini = 0.0\nsamples = 1\nvalue = [1, 0]"] ;
1140 -> 1141 ;
1142 [label="X[3] <= 2.61\ngini = 0.5\nsamples = 2\nvalue = [1, 1]"] ;
1140 -> 1142 ;
1143 [label="gini = 0.0\nsamples = 1\nvalue = [1, 0]"] ;
1142 -> 1143 ;
1144 [label="gini = 0.0\nsamples = 1\nvalue = [0, 1]"] ;
1142 -> 1144 ;
1145 [label="gini = 0.0\nsamples = 3\nvalue = [0, 3]"] ;
1137 -> 1145 ;
1146 [label="X[5] <= 2.025\ngini = 0.4863\nsamples = 175\nvalue = [102, 73]"] ;
1136 -> 1146 ;
1147 [label="X[0] <= 29.5\ngini = 0.4955\nsamples = 126\nvalue = [69, 57]"] ;
1146 -> 1147 ;
1148 [label="X[7] <= 1.5\ngini = 0.48\nsamples = 85\nvalue = [51, 34]"] ;
1147 -> 1148 ;
1149 [label="X[5] <= 0.225\ngini = 0.2659\nsamples = 19\nvalue = [16, 3]"] ;
1148 -> 1149 ;
1150 [label="X[1] <= 61180.8125\ngini = 0.3967\nsamples = 11\nvalue = [8, 3]"] ;
1149 -> 1150 ;
1151 [label="gini = 0.0\nsamples = 5\nvalue = [5, 0]"] ;
1150 -> 1151 ;
1152 [label="X[1] <= 65268.2109\ngini = 0.5\nsamples = 6\nvalue = [3, 3]"] ;
1150 -> 1152 ;
1153 [label="gini = 0.0\nsamples = 2\nvalue = [0, 2]"] ;
1152 -> 1153 ;
1154 [label="X[1] <= 108202.4688\ngini = 0.375\nsamples = 4\nvalue = [3, 1]"] ;
1152 -> 1154 ;
1155 [label="gini = 0.0\nsamples = 3\nvalue = [3, 0]"] ;
1154 -> 1155 ;
1156 [label="gini = 0.0\nsamples = 1\nvalue = [0, 1]"] ;
1154 -> 1156 ;
1157 [label="gini = 0.0\nsamples = 8\nvalue = [8, 0]"] ;
1149 -> 1157 ;
1158 [label="X[1] <= 45950.7578\ngini = 0.4982\nsamples = 66\nvalue = [35, 31]"] ;
1148 -> 1158 ;
1159 [label="X[0] <= 28.5\ngini = 0.2188\nsamples = 8\nvalue = [1, 7]"] ;
1158 -> 1159 ;
1160 [label="gini = 0.0\nsamples = 7\nvalue = [0, 7]"] ;
1159 -> 1160 ;
1161 [label="gini = 0.0\nsamples = 1\nvalue = [1, 0]"] ;
1159 -> 1161 ;
1162 [label="X[5] <= 1.875\ngini = 0.4851\nsamples = 58\nvalue = [34, 24]"] ;
1158 -> 1162 ;
1163 [label="X[5] <= 0.375\ngini = 0.4753\nsamples = 54\nvalue = [33, 21]"] ;
1162 -> 1163 ;
1164 [label="X[0] <= 26.5\ngini = 0.4444\nsamples = 6\nvalue = [2, 4]"] ;
1163 -> 1164 ;
1165 [label="X[1] <= 98669.5\ngini = 0.4444\nsamples = 3\nvalue = [2, 1]"] ;
1164 -> 1165 ;
1166 [label="gini = 0.0\nsamples = 1\nvalue = [0, 1]"] ;
1165 -> 1166 ;
1167 [label="gini = 0.0\nsamples = 2\nvalue = [2, 0]"] ;
1165 -> 1167 ;
1168 [label="gini = 0.0\nsamples = 3\nvalue = [0, 3]"] ;
1164 -> 1168 ;
1169 [label="X[4] <= 4.5\ngini = 0.4575\nsamples = 48\nvalue = [31, 17]"] ;
1163 -> 1169 ;
1170 [label="X[5] <= 1.14\ngini = 0.4491\nsamples = 47\nvalue = [31, 16]"] ;
1169 -> 1170 ;
1171 [label="X[1] <= 77319.375\ngini = 0.4861\nsamples = 24\nvalue = [14, 10]"] ;
1170 -> 1171 ;
1172 [label="X[1] <= 60850.0469\ngini = 0.42\nsamples = 10\nvalue = [3, 7]"] ;
1171 -> 1172 ;
1173 [label="X[1] <= 55048.8906\ngini = 0.5\nsamples = 6\nvalue = [3, 3]"] ;
1172 -> 1173 ;
1174 [label="X[1] <= 48714.9609\ngini = 0.375\nsamples = 4\nvalue = [1, 3]"] ;
1173 -> 1174 ;
1175 [label="gini = 0.0\nsamples = 1\nvalue = [1, 0]"] ;
1174 -> 1175 ;
1176 [label="gini = 0.0\nsamples = 3\nvalue = [0, 3]"] ;
1174 -> 1176 ;
1177 [label="gini = 0.0\nsamples = 2\nvalue = [2, 0]"] ;
1173 -> 1177 ;
1178 [label="gini = 0.0\nsamples = 4\nvalue = [0, 4]"] ;
1172 -> 1178 ;
1179 [label="X[0] <= 27.5\ngini = 0.3367\nsamples = 14\nvalue = [11, 3]"] ;
1171 -> 1179 ;
1180 [label="gini = 0.0\nsamples = 6\nvalue = [6, 0]"] ;
1179 -> 1180 ;
1181 [label="X[5] <= 0.63\ngini = 0.4688\nsamples = 8\nvalue = [5, 3]"] ;
1179 -> 1181 ;
1182 [label="gini = 0.0\nsamples = 2\nvalue = [2, 0]"] ;
1181 -> 1182 ;
1183 [label="X[5] <= 0.93\ngini = 0.5\nsamples = 6\nvalue = [3, 3]"] ;
1181 -> 1183 ;
1184 [label="gini = 0.0\nsamples = 2\nvalue = [0, 2]"] ;
1183 -> 1184 ;
1185 [label="X[0] <= 28.5\ngini = 0.375\nsamples = 4\nvalue = [3, 1]"] ;
1183 -> 1185 ;
1186 [label="gini = 0.0\nsamples = 2\nvalue = [2, 0]"] ;
1185 -> 1186 ;
1187 [label="X[5] <= 1.065\ngini = 0.5\nsamples = 2\nvalue = [1, 1]"] ;
1185 -> 1187 ;
1188 [label="gini = 0.0\nsamples = 1\nvalue = [0, 1]"] ;
1187 -> 1188 ;
1189 [label="gini = 0.0\nsamples = 1\nvalue = [1, 0]"] ;
1187 -> 1189 ;
1190 [label="X[1] <= 80995.375\ngini = 0.3856\nsamples = 23\nvalue = [17, 6]"] ;
1170 -> 1190 ;
1191 [label="X[1] <= 48827.4141\ngini = 0.18\nsamples = 10\nvalue = [9, 1]"] ;
1190 -> 1191 ;
1192 [label="X[5] <= 1.665\ngini = 0.5\nsamples = 2\nvalue = [1, 1]"] ;
1191 -> 1192 ;
1193 [label="gini = 0.0\nsamples = 1\nvalue = [1, 0]"] ;
1192 -> 1193 ;
1194 [label="gini = 0.0\nsamples = 1\nvalue = [0, 1]"] ;
1192 -> 1194 ;
1195 [label="gini = 0.0\nsamples = 8\nvalue = [8, 0]"] ;
1191 -> 1195 ;
1196 [label="X[0] <= 27.5\ngini = 0.4734\nsamples = 13\nvalue = [8, 5]"] ;
1190 -> 1196 ;
1197 [label="X[1] <= 90839.0938\ngini = 0.4898\nsamples = 7\nvalue = [3, 4]"] ;
1196 -> 1197 ;
1198 [label="gini = 0.0\nsamples = 2\nvalue = [2, 0]"] ;
1197 -> 1198 ;
1199 [label="X[5] <= 1.515\ngini = 0.32\nsamples = 5\nvalue = [1, 4]"] ;
1197 -> 1199 ;
1200 [label="X[5] <= 1.335\ngini = 0.5\nsamples = 2\nvalue = [1, 1]"] ;
1199 -> 1200 ;
1201 [label="gini = 0.0\nsamples = 1\nvalue = [0, 1]"] ;
1200 -> 1201 ;
1202 [label="gini = 0.0\nsamples = 1\nvalue = [1, 0]"] ;
1200 -> 1202 ;
1203 [label="gini = 0.0\nsamples = 3\nvalue = [0, 3]"] ;
1199 -> 1203 ;
1204 [label="X[1] <= 87831.4375\ngini = 0.2778\nsamples = 6\nvalue = [5, 1]"] ;
1196 -> 1204 ;
1205 [label="gini = 0.0\nsamples = 1\nvalue = [0, 1]"] ;
1204 -> 1205 ;
1206 [label="gini = 0.0\nsamples = 5\nvalue = [5, 0]"] ;
1204 -> 1206 ;
1207 [label="gini = 0.0\nsamples = 1\nvalue = [0, 1]"] ;
1169 -> 1207 ;
1208 [label="X[5] <= 1.935\ngini = 0.375\nsamples = 4\nvalue = [1, 3]"] ;
1162 -> 1208 ;
1209 [label="gini = 0.0\nsamples = 2\nvalue = [0, 2]"] ;
1208 -> 1209 ;
1210 [label="X[4] <= 1.5\ngini = 0.5\nsamples = 2\nvalue = [1, 1]"] ;
1208 -> 1210 ;
1211 [label="gini = 0.0\nsamples = 1\nvalue = [1, 0]"] ;
1210 -> 1211 ;
1212 [label="gini = 0.0\nsamples = 1\nvalue = [0, 1]"] ;
1210 -> 1212 ;
1213 [label="X[4] <= 1.5\ngini = 0.4926\nsamples = 41\nvalue = [18, 23]"] ;
1147 -> 1213 ;
1214 [label="X[0] <= 32.5\ngini = 0.4567\nsamples = 34\nvalue = [12, 22]"] ;
1213 -> 1214 ;
1215 [label="X[0] <= 30.5\ngini = 0.3648\nsamples = 25\nvalue = [6, 19]"] ;
1214 -> 1215 ;
1216 [label="X[1] <= 31981.5469\ngini = 0.4688\nsamples = 16\nvalue = [6, 10]"] ;
1215 -> 1216 ;
1217 [label="gini = 0.0\nsamples = 1\nvalue = [1, 0]"] ;
1216 -> 1217 ;
1218 [label="X[1] <= 118426.6172\ngini = 0.4444\nsamples = 15\nvalue = [5, 10]"] ;
1216 -> 1218 ;
1219 [label="X[1] <= 110403.4531\ngini = 0.4082\nsamples = 14\nvalue = [4, 10]"] ;
1218 -> 1219 ;
1220 [label="X[1] <= 74931.0156\ngini = 0.48\nsamples = 10\nvalue = [4, 6]"] ;
1219 -> 1220 ;
1221 [label="X[5] <= 0.465\ngini = 0.375\nsamples = 8\nvalue = [2, 6]"] ;
1220 -> 1221 ;
1222 [label="gini = 0.0\nsamples = 3\nvalue = [0, 3]"] ;
1221 -> 1222 ;
1223 [label="X[5] <= 0.525\ngini = 0.48\nsamples = 5\nvalue = [2, 3]"] ;
1221 -> 1223 ;
1224 [label="gini = 0.0\nsamples = 1\nvalue = [1, 0]"] ;
1223 -> 1224 ;
1225 [label="X[1] <= 42062.3672\ngini = 0.375\nsamples = 4\nvalue = [1, 3]"] ;
1223 -> 1225 ;
1226 [label="gini = 0.0\nsamples = 2\nvalue = [0, 2]"] ;
1225 -> 1226 ;
1227 [label="X[5] <= 0.945\ngini = 0.5\nsamples = 2\nvalue = [1, 1]"] ;
1225 -> 1227 ;
1228 [label="gini = 0.0\nsamples = 1\nvalue = [0, 1]"] ;
1227 -> 1228 ;
1229 [label="gini = 0.0\nsamples = 1\nvalue = [1, 0]"] ;
1227 -> 1229 ;
1230 [label="gini = 0.0\nsamples = 2\nvalue = [2, 0]"] ;
1220 -> 1230 ;
1231 [label="gini = 0.0\nsamples = 4\nvalue = [0, 4]"] ;
1219 -> 1231 ;
1232 [label="gini = 0.0\nsamples = 1\nvalue = [1, 0]"] ;
1218 -> 1232 ;
1233 [label="gini = 0.0\nsamples = 9\nvalue = [0, 9]"] ;
1215 -> 1233 ;
1234 [label="X[0] <= 33.5\ngini = 0.4444\nsamples = 9\nvalue = [6, 3]"] ;
1214 -> 1234 ;
1235 [label="gini = 0.0\nsamples = 5\nvalue = [5, 0]"] ;
1234 -> 1235 ;
1236 [label="X[5] <= 0.39\ngini = 0.375\nsamples = 4\nvalue = [1, 3]"] ;
1234 -> 1236 ;
1237 [label="gini = 0.0\nsamples = 1\nvalue = [1, 0]"] ;
1236 -> 1237 ;
1238 [label="gini = 0.0\nsamples = 3\nvalue = [0, 3]"] ;
1236 -> 1238 ;
1239 [label="X[4] <= 18.0\ngini = 0.2449\nsamples = 7\nvalue = [6, 1]"] ;
1213 -> 1239 ;
1240 [label="gini = 0.0\nsamples = 6\nvalue = [6, 0]"] ;
1239 -> 1240 ;
1241 [label="gini = 0.0\nsamples = 1\nvalue = [0, 1]"] ;
1239 -> 1241 ;
1242 [label="X[0] <= 29.5\ngini = 0.4398\nsamples = 49\nvalue = [33, 16]"] ;
1146 -> 1242 ;
1243 [label="X[5] <= 4.2\ngini = 0.4688\nsamples = 40\nvalue = [25, 15]"] ;
1242 -> 1243 ;
1244 [label="X[5] <= 2.37\ngini = 0.4501\nsamples = 38\nvalue = [25, 13]"] ;
1243 -> 1244 ;
1245 [label="X[0] <= 27.5\ngini = 0.2778\nsamples = 12\nvalue = [10, 2]"] ;
1244 -> 1245 ;
1246 [label="gini = 0.0\nsamples = 7\nvalue = [7, 0]"] ;
1245 -> 1246 ;
